{"learner":{"attributes":{"scikit_learn":"{\"_estimator_type\": \"classifier\"}"},"feature_names":["TP2","TP3","H1","DV_pressure","Reservoirs","Oil_temperature","Motor_current","COMP","DV_eletric","Towers","MPG","LPS","Pressure_switch","Oil_level","Caudal_impulses","time_diff","Motor_current_mean_5","Motor_current_std_5","Oil_temperature_mean_5","Oil_temperature_std_5","TP2_mean_5","TP3_mean_5","Motor_current_diff","Oil_temperature_diff","TP2_diff","TP3_diff","Motor_current_lag1","Motor_current_lag2","Oil_temperature_lag1","Oil_temperature_lag2"],"feature_types":["float","float","float","float","float","float","float","float","float","float","float","float","float","float","float","float","float","float","float","float","float","float","float","float","float","float","float","float","float","float"],"gradient_booster":{"model":{"cats":{"enc":[],"feature_segments":[],"sorted_idx":[]},"gbtree_model_param":{"num_parallel_tree":"1","num_trees":"100"},"iteration_indptr":[0,1,2,3,4,5,6,7,8,9,10,11,12,13,14,15,16,17,18,19,20,21,22,23,24,25,26,27,28,29,30,31,32,33,34,35,36,37,38,39,40,41,42,43,44,45,46,47,48,49,50,51,52,53,54,55,56,57,58,59,60,61,62,63,64,65,66,67,68,69,70,71,72,73,74,75,76,77,78,79,80,81,82,83,84,85,86,87,88,89,90,91,92,93,94,95,96,97,98,99,100],"tree_info":[0,0,0,0,0,0,0,0,0,0,0,0,0,0,0,0,0,0,0,0,0,0,0,0,0,0,0,0,0,0,0,0,0,0,0,0,0,0,0,0,0,0,0,0,0,0,0,0,0,0,0,0,0,0,0,0,0,0,0,0,0,0,0,0,0,0,0,0,0,0,0,0,0,0,0,0,0,0,0,0,0,0,0,0,0,0,0,0,0,0,0,0,0,0,0,0,0,0,0,0],"trees":[{"base_weights":[2.9472809E-3,1.6467172E0,-1.4226382E0,1.7529765E0,-1.7635492E0,-5.3005075E-1,-1.7888068E0,1.9532223E0,7.3033637E-1,-1.8411701E0,-1.2808809E0,-1.3271506E0,7.185403E-1,-1.4742706E0,-1.883263E0,9.9437766E-2,1.5832816E0,-2.1349502E-1,1.4963752E0,-1.210813E0,-1.8994026E0,1.046929E0,-1.5298191E0,6.531539E-1,-1.4272562E0,8.02621E-1,-9.767442E-2,-1.7627693E0,-6.021073E-1,-1.8885455E0,3.356314E-1,7.9844195E-1,1.777973E0,2.4169631E-1,-6.7672354E-1,8.753242E-1,1.6437602E0,-1.4929336E0,3.4395927E-1,-9.57978E-2,-1.0367008E0,1.42484605E-2,6.997718E-2,1.42484605E-2,-1.6193752E0,9.439479E-1,-2.9227734E-1,-1.0670552E0,-1.7246566E0,1.2716446E0,4.0249723E-1,-6.838547E-2,-1.8097194E0,-2.8175176E-3,-1.3917568E0,-1.3513758E0,-1.9069641E0,1.005599E0,-7.894737E-2,1.1071649E0,1.4975889E-1,1.6115315E0,1.8953451E0,1.0639315E0,-9.980013E-2,1.148893E0,-8.41331E-1,1.4422059E0,5.833412E-2,1.6743208E0,6.834543E-1,-9.4444446E-2,1.24108635E-1,-5.555556E-2,5.810991E-2,-8.0000006E-2,1.42484605E-2,-9.583333E-2,-1.1585267E0,-7.1428575E-2,1.0371871E0,4.071747E-1,-1.3604088E0,-1.4622898E0,-3.1823382E-1,-1.9114711E0,-1.5488733E0,7.6855254E-1,1.5218477E0,-3.8082433E-1,7.749978E-1,2.5299865E-1,-8.571429E-2,-1.818153E0,-2.7120364E-1,1.6433798E-1,-9.569892E-2,-1.4387584E-1,-1.5010895E0,-9.1043776E-1,-1.84812E0,-1.823476E0,-1.9724258E0,1.3951541E0,-6.0000002E-2,1.1804255E0,-2.114112E-1,1.1560631E0,-2.802076E-1,1.8623991E0,1.282301E0,2.4964346E-2,1.9005336E0,1.5195454E0,6.044777E-1,-4.199102E-1,4.180167E-1,1.5459647E0,-1.1859453E-1,-1.1230754E0,-2.823267E-1,1.5692261E0,-1.7237234E-1,7.778566E-1,-6.3633466E-1,1.4620697E0,1.7910525E0,-8.3333336E-2,1.3521248E0,4.779157E-2,-6.0000002E-2,-9.2307694E-2,2.8478283E-1,2.0458692E-1,1.2594045E0,-1.502297E-1,1.3508178E0,3.7898473E-2,-8.888889E-2,-1.6851003E0,-1.2242099E0,-1.8650383E-1,-1.7570125E0,-1.9273127E0,-8.181365E-1,-6.3480504E-2,-1.5733485E0,9.676155E-1,2.2503087E-1,1.5861609E0,6.5845567E-1,-8.0987877E-1,1.0080487E0,9.44825E-1,-4.141927E-2,-4.499299E-1,7.942972E-1,-1.8266816E0,-2.7120364E-1,1.1993914E0,-8.095238E-2,-1.7959708E-1,1.0636345E0,5.829141E-1,-8.4E-2,-1.5730839E0,-1.07848875E-1,-5.4286236E-1,-1.7026534E0,2.4964346E-2,-1.8906825E0,-1.8611927E0,-1.3845061E0,-1.9748601E0,-1.4628668E0,1.0450469E-1,8.4055774E-2,-2.0036504E-2,6.1846573E-2,-6.923077E-2,3.8737487E-2,6.920376E-2,-2.4770293E-3,-8.0000006E-2,-3.3944421E-3,9.3736194E-2,2.4964346E-2,7.746188E-2,3.813621E-2,9.528857E-2,2.4964346E-2,7.916545E-2,-5E-2,4.9840625E-2,6.375571E-4,2.832668E-2,-3.7244923E-2,2.6896389E-3,5.14501E-2,8.005478E-2,2.4964346E-2,-7.5E-2,4.541682E-2,-1.2172898E-2,-6.3165866E-2,1.7241195E-2,-5.361424E-2,8.1929155E-2,1.8472606E-2,3.3291068E-2,-7.333334E-2,5.5821706E-2,-2.9937645E-2,1.356754E-2,-8.215522E-2,9.243818E-2,6.2413212E-2,9.247919E-2,7.5124435E-2,7.874104E-2,-5.555556E-2,4.541682E-2,-6.0000002E-2,4.474404E-2,-8.095238E-2,6.9826625E-2,2.7612736E-2,3.048181E-2,-7.647059E-2,7.775899E-2,2.4964346E-2,-3.2788035E-2,-8.721001E-2,-3.0536218E-2,-7.22582E-2,-3.274717E-2,1.0898505E-2,-9.59596E-2,-9.128622E-3,-9.714027E-2,-6.77967E-2,1.4478053E-3,-8.0000006E-2,3.4739465E-2,-7.5E-2,-8.093881E-2,-4.7028355E-2,5.096668E-2,-3.5517108E-2,-4.3837804E-2,2.2496624E-2,2.9364381E-2,8.138331E-2,5.293992E-2,-8.0000006E-2,8.759106E-3,-6.745095E-2,7.450453E-2,9.722832E-3,7.29477E-2,3.8703255E-2,4.5237366E-2,-7.105234E-2,-5.11122E-2,3.9090168E-2,-6.363636E-2,5.2593645E-2,-1.057056E-2,-9.1622E-2,2.303191E-2,-7.333334E-2,6.997718E-2,2.4964346E-2,1.213298E-2,-5.8200654E-2,5.8561116E-2,-7.1428575E-2,-6.666667E-2,5.1787358E-2,-3.4526844E-2,-8.315573E-2,4.936048E-2,-8.0000006E-2,-6.268041E-2,-9.693085E-3,-9.072599E-2,5.2252347E-3,-6.1562087E-2,-9.652736E-2,1.1715353E-2,-9.347653E-2,-2.137695E-2,-9.189247E-2,-9.880532E-2,-5.9208374E-2,6.997718E-2,-9.466667E-2,-5E-2,5.3819146E-2],"categories":[],"categories_nodes":[],"categories_segments":[],"categories_sizes":[],"default_left":[0,0,0,0,0,0,0,0,0,0,0,0,0,0,0,0,0,0,0,0,0,0,0,0,0,0,0,0,0,0,0,0,0,0,0,0,0,0,0,0,0,0,0,0,0,0,0,0,0,0,0,0,0,0,0,0,0,0,0,0,0,0,0,0,0,0,0,0,0,0,0,0,0,0,0,0,0,0,0,0,0,0,0,0,0,0,0,0,0,0,0,0,0,0,0,0,0,0,0,0,0,0,0,0,0,0,0,0,0,0,0,0,0,0,0,0,0,0,0,0,0,0,0,0,0,0,0,0,0,0,0,0,0,0,0,0,0,0,0,0,0,0,0,0,0,0,0,0,0,0,0,0,0,0,0,0,0,0,0,0,0,0,0,0,0,0,0,0,0,0,0,0,0,0,0,0,0,0,0,0,0,0,0,0,0,0,0,0,0,0,0,0,0,0,0,0,0,0,0,0,0,0,0,0,0,0,0,0,0,0,0,0,0,0,0,0,0,0,0,0,0,0,0,0,0,0,0,0,0,0,0,0,0,0,0,0,0,0,0,0,0,0,0,0,0,0,0,0,0,0,0,0,0,0,0,0,0,0,0,0,0,0,0,0,0,0,0,0,0,0,0,0,0,0,0,0,0,0,0,0,0,0,0,0,0,0,0,0,0,0,0,0,0,0,0,0,0,0,0],"id":0,"left_children":[1,3,5,7,9,11,13,15,17,19,21,23,25,27,29,-1,31,33,35,37,39,41,43,45,47,49,-1,51,53,55,57,59,61,63,65,67,69,71,73,-1,75,-1,-1,-1,77,79,81,83,85,87,89,91,93,95,97,99,101,103,-1,105,107,109,111,113,115,117,119,121,123,125,127,-1,129,-1,-1,-1,-1,-1,131,-1,133,135,137,139,141,143,145,147,149,151,153,155,-1,157,159,161,-1,163,165,167,169,171,173,175,-1,177,179,181,183,185,187,-1,189,191,193,195,197,199,201,203,205,207,209,211,213,215,217,-1,219,-1,-1,-1,221,223,225,227,229,-1,-1,231,233,235,237,239,241,243,245,247,249,251,253,255,257,259,261,263,265,267,269,271,-1,273,275,277,-1,279,281,283,285,-1,287,289,291,293,295,297,-1,-1,-1,-1,-1,-1,-1,-1,-1,-1,-1,-1,-1,-1,-1,-1,-1,-1,-1,-1,-1,-1,-1,-1,-1,-1,-1,-1,-1,-1,-1,-1,-1,-1,-1,-1,-1,-1,-1,-1,-1,-1,-1,-1,-1,-1,-1,-1,-1,-1,-1,-1,-1,-1,-1,-1,-1,-1,-1,-1,-1,-1,-1,-1,-1,-1,-1,-1,-1,-1,-1,-1,-1,-1,-1,-1,-1,-1,-1,-1,-1,-1,-1,-1,-1,-1,-1,-1,-1,-1,-1,-1,-1,-1,-1,-1,-1,-1,-1,-1,-1,-1,-1,-1,-1,-1,-1,-1,-1,-1,-1,-1,-1,-1,-1,-1,-1,-1,-1,-1,-1,-1,-1],"loss_changes":[5.3997355E4,3.881371E3,4.0323848E3,2.1240996E3,9.776428E0,3.5751335E3,2.571914E2,1.109375E2,1.2303342E3,7.8585205E0,2.9508133E1,4.3552637E2,3.1609253E2,5.0858057E2,7.94707E1,0E0,1.1555054E2,1.6105777E2,8.452881E1,1.1988853E1,1.6064453E0,1.0107117E0,7.598213E0,2.946585E1,2.217373E2,2.5433429E2,0E0,1.20913086E2,2.3896495E2,6.3810547E1,2.3166996E1,3.0668098E1,8.912109E0,1.0837863E2,1.1469394E2,8.4334E1,2.1098755E1,1.45323105E1,7.042857E0,0E0,5.6044354E0,0E0,0E0,0E0,3.5332336E0,1.9496155E1,1.9783403E1,2.7966394E2,3.4527588E1,7.746399E1,2.1454642E2,2.2682978E1,1.871582E1,9.2349396E1,2.9510498E1,4.7792084E1,3.1847656E1,1.2906709E1,0E0,1.031163E1,2.2305748E1,1.9085632E1,1.6119385E0,2.2786316E1,4.548713E1,1.6149197E1,5.4448242E1,2.2330704E1,3.833618E1,1.5563232E1,4.1643036E1,0E0,7.0177608E0,0E0,0E0,0E0,0E0,0E0,1.9378702E1,0E0,1.4346832E1,8.788784E0,1.0556229E1,3.0785889E1,6.1888885E1,7.9346924E0,2.1474487E1,2.2450165E1,2.2065308E1,1.4223158E2,6.908093E1,1.4078682E1,0E0,1.8927734E1,2.0269064E1,8.241652E1,0E0,2.1809599E1,1.9913849E1,3.449459E1,1.145932E1,4.483008E1,1.6044922E0,4.095705E0,0E0,9.325775E0,8.397264E0,4.303005E0,1.009132E1,1.5058594E0,1.4857971E1,0E0,1.6309814E0,1.0611618E1,1.3462208E1,5.4737606E1,2.3295643E1,5.986061E-1,1.341528E1,2.8171417E1,5.8761353E1,7.700943E0,1.0465021E1,1.8211494E1,3.6148655E1,1.9670715E1,5.1429443E0,0E0,1.2756836E1,0E0,0E0,0E0,7.5673757E0,2.3885473E1,5.2517776E0,1.2629665E1,2.9576397E-1,0E0,0E0,1.8154053E1,4.0192444E1,5.733509E1,6.6498947E0,2.1507568E0,6.3917966E0,1.2655536E1,1.5258301E1,1.4005325E1,1.463414E1,1.5072937E1,2.9326721E1,9.6818756E1,2.1850834E1,3.5063538E1,1.1446591E2,1.2308718E1,1.2378265E1,1.3228516E1,8.765008E0,1.3308525E-3,0E0,8.057239E1,2.1431526E1,1.3015483E1,0E0,1.3973053E1,1.9409008E1,2.072976E1,7.8880463E0,0E0,3.4597778E-1,4.645703E1,9.9196655E1,1.2089844E0,2.8624966E1,4.4742618E0,0E0,0E0,0E0,0E0,0E0,0E0,0E0,0E0,0E0,0E0,0E0,0E0,0E0,0E0,0E0,0E0,0E0,0E0,0E0,0E0,0E0,0E0,0E0,0E0,0E0,0E0,0E0,0E0,0E0,0E0,0E0,0E0,0E0,0E0,0E0,0E0,0E0,0E0,0E0,0E0,0E0,0E0,0E0,0E0,0E0,0E0,0E0,0E0,0E0,0E0,0E0,0E0,0E0,0E0,0E0,0E0,0E0,0E0,0E0,0E0,0E0,0E0,0E0,0E0,0E0,0E0,0E0,0E0,0E0,0E0,0E0,0E0,0E0,0E0,0E0,0E0,0E0,0E0,0E0,0E0,0E0,0E0,0E0,0E0,0E0,0E0,0E0,0E0,0E0,0E0,0E0,0E0,0E0,0E0,0E0,0E0,0E0,0E0,0E0,0E0,0E0,0E0,0E0,0E0,0E0,0E0,0E0,0E0,0E0,0E0,0E0,0E0,0E0,0E0,0E0,0E0,0E0,0E0,0E0,0E0,0E0,0E0,0E0],"parents":[2147483647,0,0,1,1,2,2,3,3,4,4,5,5,6,6,7,7,8,8,9,9,10,10,11,11,12,12,13,13,14,14,16,16,17,17,18,18,19,19,20,20,21,21,22,22,23,23,24,24,25,25,27,27,28,28,29,29,30,30,31,31,32,32,33,33,34,34,35,35,36,36,37,37,38,38,40,40,44,44,45,45,46,46,47,47,48,48,49,49,50,50,51,51,52,52,53,53,54,54,55,55,56,56,57,57,59,59,60,60,61,61,62,62,63,63,64,64,65,65,66,66,67,67,68,68,69,69,70,70,72,72,78,78,80,80,81,81,82,82,83,83,84,84,85,85,86,86,87,87,88,88,89,89,90,90,91,91,93,93,94,94,95,95,97,97,98,98,99,99,100,100,101,101,102,102,103,103,105,105,106,106,107,107,108,108,109,109,110,110,112,112,113,113,114,114,115,115,116,116,117,117,118,118,119,119,120,120,121,121,122,122,123,123,124,124,125,125,126,126,128,128,132,132,133,133,134,134,135,135,136,136,139,139,140,140,141,141,142,142,143,143,144,144,145,145,146,146,147,147,148,148,149,149,150,150,151,151,152,152,153,153,154,154,155,155,156,156,157,157,158,158,159,159,161,161,162,162,163,163,165,165,166,166,167,167,168,168,170,170,171,171,172,172,173,173,174,174,175,175],"right_children":[2,4,6,8,10,12,14,16,18,20,22,24,26,28,30,-1,32,34,36,38,40,42,44,46,48,50,-1,52,54,56,58,60,62,64,66,68,70,72,74,-1,76,-1,-1,-1,78,80,82,84,86,88,90,92,94,96,98,100,102,104,-1,106,108,110,112,114,116,118,120,122,124,126,128,-1,130,-1,-1,-1,-1,-1,132,-1,134,136,138,140,142,144,146,148,150,152,154,156,-1,158,160,162,-1,164,166,168,170,172,174,176,-1,178,180,182,184,186,188,-1,190,192,194,196,198,200,202,204,206,208,210,212,214,216,218,-1,220,-1,-1,-1,222,224,226,228,230,-1,-1,232,234,236,238,240,242,244,246,248,250,252,254,256,258,260,262,264,266,268,270,272,-1,274,276,278,-1,280,282,284,286,-1,288,290,292,294,296,298,-1,-1,-1,-1,-1,-1,-1,-1,-1,-1,-1,-1,-1,-1,-1,-1,-1,-1,-1,-1,-1,-1,-1,-1,-1,-1,-1,-1,-1,-1,-1,-1,-1,-1,-1,-1,-1,-1,-1,-1,-1,-1,-1,-1,-1,-1,-1,-1,-1,-1,-1,-1,-1,-1,-1,-1,-1,-1,-1,-1,-1,-1,-1,-1,-1,-1,-1,-1,-1,-1,-1,-1,-1,-1,-1,-1,-1,-1,-1,-1,-1,-1,-1,-1,-1,-1,-1,-1,-1,-1,-1,-1,-1,-1,-1,-1,-1,-1,-1,-1,-1,-1,-1,-1,-1,-1,-1,-1,-1,-1,-1,-1,-1,-1,-1,-1,-1,-1,-1,-1,-1,-1,-1],"split_conditions":[8.504E0,3.81E0,8.858E0,8.388E0,3.0483434E0,6.5175E1,9.114E0,8.344E0,6.3325E1,-2.4E-2,5.5535E1,-2.4E-2,3.8175E0,6.6975E1,3.452E0,9.9437766E-2,6.077E1,4.25E-2,6.4175E1,8.198E0,8.496E0,-2.2E-2,8.1212E0,4.25E-2,8.642E0,8.65E0,-9.767442E-2,-4.2E-2,-1.6E-2,-6.4E-2,6.025E0,8.374E0,6.3245E1,8.398E0,-1.8E-2,8.44E0,1.6130439E0,8.1764E0,8.1E-1,-9.57978E-2,1.55E-1,1.42484605E-2,6.997718E-2,1.42484605E-2,5.8475E0,6.2255E1,8.702E0,6.3175E1,6.2565E1,6.635E1,6.6505E1,3.7939095E-1,1.3369274E0,3.81E0,-9.5E-2,9.7496E0,9.394E0,6.538E0,-7.894737E-2,4.5E-2,4.25E-2,-1.4E-2,8.3696E0,-1.4E-2,1E0,8.454E0,6.0935E1,2.4392621E-1,-1.6E-2,6.529E1,8.909264E-2,-9.4444446E-2,6.2205E1,-5.555556E-2,5.810991E-2,-8.0000006E-2,1.42484605E-2,-9.583333E-2,5.25E-2,-7.1428575E-2,4E-2,6.425E1,4E-2,1E0,2.2360664E-3,5.97E0,6.25E1,8.606E0,1E0,4.75E-2,1E0,3.2278087E-2,-8.571429E-2,9.1512E0,6.334E1,6.945E1,-9.569892E-2,8.98E0,7.055E1,4.9339387E-1,3.6375E0,7.042E1,3.78E-1,1E0,-6.0000002E-2,4.999999E-2,1.3693036E-3,6.02E1,5.8485E1,2.5335252E-1,8.374E0,2.4964346E-2,8.6872E0,2.2262637E-1,9.9373035E-2,6.0995E1,6.2475E1,-1E-2,8.49E0,4.25E-2,8.43E0,-1E-2,1.1180305E-3,1.3693037E-3,1.0810874E-1,-1.6E-2,1E0,-8.3333336E-2,1E0,4.779157E-2,-6.0000002E-2,-9.2307694E-2,8.44E0,1.05178416E-1,8.764E0,6.2565E1,6.4975E1,3.7898473E-2,-8.888889E-2,5.938E1,4.25E-2,6.415E1,2.6863441E0,2.24E-1,-2E-2,8.702E0,6.502E1,6.6175E1,1.0839742E-1,5.7008766E-2,4.75E-2,8.712E0,1E0,-5.6E-2,4.25E-2,3.0382973E-1,4.5E-2,-1.6E-2,-1.8E-2,9.036E0,-8.095238E-2,9.014E0,9.306E0,1.0810874E-1,-8.4E-2,8.89E0,3.67E0,3.7E0,9.7404E0,2.4964346E-2,1E1,-3.354E0,4.1170377E-2,1.4E-1,1.0008E1,9.734E0,8.4055774E-2,-2.0036504E-2,6.1846573E-2,-6.923077E-2,3.8737487E-2,6.920376E-2,-2.4770293E-3,-8.0000006E-2,-3.3944421E-3,9.3736194E-2,2.4964346E-2,7.746188E-2,3.813621E-2,9.528857E-2,2.4964346E-2,7.916545E-2,-5E-2,4.9840625E-2,6.375571E-4,2.832668E-2,-3.7244923E-2,2.6896389E-3,5.14501E-2,8.005478E-2,2.4964346E-2,-7.5E-2,4.541682E-2,-1.2172898E-2,-6.3165866E-2,1.7241195E-2,-5.361424E-2,8.1929155E-2,1.8472606E-2,3.3291068E-2,-7.333334E-2,5.5821706E-2,-2.9937645E-2,1.356754E-2,-8.215522E-2,9.243818E-2,6.2413212E-2,9.247919E-2,7.5124435E-2,7.874104E-2,-5.555556E-2,4.541682E-2,-6.0000002E-2,4.474404E-2,-8.095238E-2,6.9826625E-2,2.7612736E-2,3.048181E-2,-7.647059E-2,7.775899E-2,2.4964346E-2,-3.2788035E-2,-8.721001E-2,-3.0536218E-2,-7.22582E-2,-3.274717E-2,1.0898505E-2,-9.59596E-2,-9.128622E-3,-9.714027E-2,-6.77967E-2,1.4478053E-3,-8.0000006E-2,3.4739465E-2,-7.5E-2,-8.093881E-2,-4.7028355E-2,5.096668E-2,-3.5517108E-2,-4.3837804E-2,2.2496624E-2,2.9364381E-2,8.138331E-2,5.293992E-2,-8.0000006E-2,8.759106E-3,-6.745095E-2,7.450453E-2,9.722832E-3,7.29477E-2,3.8703255E-2,4.5237366E-2,-7.105234E-2,-5.11122E-2,3.9090168E-2,-6.363636E-2,5.2593645E-2,-1.057056E-2,-9.1622E-2,2.303191E-2,-7.333334E-2,6.997718E-2,2.4964346E-2,1.213298E-2,-5.8200654E-2,5.8561116E-2,-7.1428575E-2,-6.666667E-2,5.1787358E-2,-3.4526844E-2,-8.315573E-2,4.936048E-2,-8.0000006E-2,-6.268041E-2,-9.693085E-3,-9.072599E-2,5.2252347E-3,-6.1562087E-2,-9.652736E-2,1.1715353E-2,-9.347653E-2,-2.137695E-2,-9.189247E-2,-9.880532E-2,-5.9208374E-2,6.997718E-2,-9.466667E-2,-5E-2,5.3819146E-2],"split_indices":[1,26,1,1,17,29,1,2,29,2,18,25,26,29,24,0,18,6,28,1,1,2,21,26,1,1,0,25,3,25,6,1,18,2,25,4,17,21,22,0,22,0,0,0,26,18,1,29,18,29,18,19,19,27,22,21,2,24,0,6,26,25,21,25,13,2,18,19,3,18,19,0,18,0,0,0,0,0,22,0,26,18,6,13,17,27,28,1,13,27,13,17,0,21,18,28,0,1,28,19,27,18,3,9,0,19,17,29,18,19,1,0,21,19,19,18,28,0,1,27,2,25,17,17,19,25,13,0,13,0,0,0,1,19,1,18,29,0,0,18,26,28,17,24,3,1,18,28,19,19,27,4,13,25,6,19,6,2,3,1,0,2,21,19,0,1,6,27,21,0,15,24,17,22,4,0,0,0,0,0,0,0,0,0,0,0,0,0,0,0,0,0,0,0,0,0,0,0,0,0,0,0,0,0,0,0,0,0,0,0,0,0,0,0,0,0,0,0,0,0,0,0,0,0,0,0,0,0,0,0,0,0,0,0,0,0,0,0,0,0,0,0,0,0,0,0,0,0,0,0,0,0,0,0,0,0,0,0,0,0,0,0,0,0,0,0,0,0,0,0,0,0,0,0,0,0,0,0,0,0,0,0,0,0,0,0,0,0,0,0,0,0,0,0,0,0,0,0,0],"split_type":[0,0,0,0,0,0,0,0,0,0,0,0,0,0,0,0,0,0,0,0,0,0,0,0,0,0,0,0,0,0,0,0,0,0,0,0,0,0,0,0,0,0,0,0,0,0,0,0,0,0,0,0,0,0,0,0,0,0,0,0,0,0,0,0,0,0,0,0,0,0,0,0,0,0,0,0,0,0,0,0,0,0,0,0,0,0,0,0,0,0,0,0,0,0,0,0,0,0,0,0,0,0,0,0,0,0,0,0,0,0,0,0,0,0,0,0,0,0,0,0,0,0,0,0,0,0,0,0,0,0,0,0,0,0,0,0,0,0,0,0,0,0,0,0,0,0,0,0,0,0,0,0,0,0,0,0,0,0,0,0,0,0,0,0,0,0,0,0,0,0,0,0,0,0,0,0,0,0,0,0,0,0,0,0,0,0,0,0,0,0,0,0,0,0,0,0,0,0,0,0,0,0,0,0,0,0,0,0,0,0,0,0,0,0,0,0,0,0,0,0,0,0,0,0,0,0,0,0,0,0,0,0,0,0,0,0,0,0,0,0,0,0,0,0,0,0,0,0,0,0,0,0,0,0,0,0,0,0,0,0,0,0,0,0,0,0,0,0,0,0,0,0,0,0,0,0,0,0,0,0,0,0,0,0,0,0,0,0,0,0,0,0,0,0,0,0,0,0,0],"sum_hessian":[2.3040955E4,1.0701475E4,1.233948E4,1.0378579E4,3.228964E2,3.5902322E3,8.749248E3,8.678341E3,1.7002379E3,2.757386E2,4.71578E1,2.1912664E3,1.3989661E3,2.024461E3,6.724787E3,7.913836E3,7.6450494E2,7.620467E2,9.381913E2,2.5161598E1,2.50577E2,4.2461987E0,4.29116E1,1.0517397E2,2.0860923E3,1.3569661E3,4.2E1,1.5204857E3,5.0397534E2,6.708964E3,1.5823196E1,1.5296677E2,6.115382E2,3.845989E2,3.7744775E2,1.8127475E2,7.569165E2,2.13308E1,3.830799E0,2.4466159E2,5.9153996E0,1.9153996E0,2.330799E0,1.9153996E0,4.09962E1,8.043538E1,2.4738596E1,9.455105E2,1.1405818E3,6.23695E2,7.3327106E2,4.106179E1,1.479424E3,2.8709415E2,2.168812E2,2.2487738E2,6.4840864E3,1.2073196E1,3.75E0,1.0316257E2,4.980419E1,2.589953E2,3.5254288E2,1.1223956E2,2.7235934E2,3.072339E1,3.4672437E2,1.0656657E2,7.470818E1,7.3285095E2,2.4065594E1,1.7E1,4.330799E0,1.25E0,2.580799E0,4E0,1.9153996E0,2.3E1,1.7996199E1,2.5E0,7.793538E1,1.5323196E1,9.4154E0,6.1824335E2,3.2726715E2,5.48154E2,5.924278E2,2.0850955E2,4.1518546E2,2.3631276E2,4.9695825E2,3.506179E1,6E0,1.4711777E3,8.246199E0,2.6484415E2,2.225E1,1.7657797E1,1.9922339E2,1.2063119E2,1.042462E2,2.862363E3,3.6217234E3,1.0573196E1,1.5E0,9.783177E1,5.330799E0,1.44039955E1,3.5400192E1,1.4434795E2,1.1464736E2,1.6653996E0,3.5087747E2,5.519678E1,5.7042786E1,1.6842778E2,1.0393158E2,2.3227192E1,7.4961987E0,2.2986218E2,1.1686218E2,9.8820366E1,7.7461987E0,3.663879E1,3.8069397E1,2.648337E2,4.6801724E2,5E0,1.9065594E1,2.830799E0,1.5E0,1.2E1,5.9961987E0,1.6823196E1,6.1112183E1,1.0161598E1,5.161598E0,1.4153996E0,8E0,3.162234E2,3.0202E2,3.0085175E2,2.64154E1,5.395732E2,8.580799E0,9.661598E0,5.827662E2,1.5204376E2,5.646579E1,3.8562366E2,2.9561792E1,1.8085838E2,5.5454384E1,4.1125388E2,8.5704384E1,1.5326998E1,1.9734795E1,1.4629315E3,8.246199E0,3.9961987E0,4.25E0,1.9215497E2,7.268918E1,1.2407797E1,5.25E0,1.893118E2,9.911598E0,8.3550385E1,3.70808E1,1.6653996E0,1.02580795E2,2.6329011E3,2.2946199E2,3.6016426E3,2.00808E1,2.1653996E0,8.407797E0,3.1653996E0,9.466637E1,2.25E0,3.080799E0,1.1988596E1,2.4153996E0,4E0,3.1400194E1,1.4268254E2,1.6653996E0,7.442777E1,4.021959E1,3.4921207E2,1.6653996E0,5.419678E1,1E0,3.388879E1,2.3153996E1,4.155419E1,1.2687358E2,6.5796585E1,3.8134987E1,2.1561792E1,1.6653996E0,3E0,4.4961987E0,3.1984795E1,1.9787738E2,6.545818E1,5.1403996E1,9.3074165E1,5.7461987E0,4.9961987E0,2.75E0,2.9557991E1,7.080799E0,2.0403996E1,1.76654E1,9.1570366E1,1.7326335E2,3.8459705E2,8.342017E1,1.7815594E1,1.25E0,4.4961987E0,1.5E0,1.2573196E1,4.25E0,5.036978E1,1.0742397E1,6.911598E0,3.25E0,3.4961987E0,1.6653996E0,1.7826998E1,2.983964E2,8.096959E1,2.2105038E2,1.3911598E2,1.6173576E2,2.375E1,2.6653996E0,5.229924E2,1.65808E1,4.580799E0,4E0,6.661598E0,3E0,5.422776E2,4.0488594E1,1.4787836E2,4.1653996E0,9.080799E0,4.7384987E1,1.5988596E1,3.6963507E2,2.5561792E1,4E0,6.421199E1,1.1664639E2,3.430039E1,2.1153996E1,1.0065497E2,3.105989E2,5.1042786E1,3.46616E1,1.0580799E1,4.7461987E0,1.75E0,1.7984795E1,5.330799E0,1.4576008E3,5.4961987E0,2.75E0,2.330799E0,1.6653996E0,1.3500098E2,5.7153996E1,7.018918E1,2.5E0,2E0,1.0407797E1,1.8326998E1,1.709848E2,5.911598E0,4E0,2.6661598E1,5.688879E1,3.4915398E1,2.1653996E0,7.6653996E0,9.49154E1,1.0326998E1,2.6225742E3,7.438499E1,1.55077E2,3.5944773E3,7.1653996E0,2.330799E0,1.775E1,1E0,1.1653996E0],"tree_param":{"num_deleted":"0","num_feature":"30","num_nodes":"299","size_leaf_vector":"1"}},{"base_weights":[5.961513E-3,1.5623975E0,-1.3596623E0,1.6647097E0,-1.7235255E0,-5.316992E-1,-1.7097769E0,1.8607292E0,6.8192214E-1,-9.752059E-1,-1.7695444E0,-1.2648464E0,7.167715E-1,-8.280221E-1,-1.743547E0,1.8937969E0,1.5139064E0,-5.1487036E-2,1.5361675E0,-8.873712E-2,5.863824E-1,-2.7314833E-1,-1.7830132E0,4.02724E-1,-1.3511864E0,8.0390894E-1,-9.3460515E-2,1.0611369E-1,-1.4229136E0,-1.4366196E0,-1.8028972E0,9.4872E-2,8.881998E-2,8.3726275E-1,1.6870598E0,2.838805E-1,-1.2113838E0,1.6508435E0,1.3069689E0,1.3127375E0,-6.271001E-2,-6.086878E-2,5.254949E-2,-1.7951578E0,-1.079812E0,1.0899259E0,-7.431133E-2,-8.7890744E-1,-1.561021E0,1.1481787E0,3.0133915E-1,-1.0900494E0,4.5709732E-1,8.860822E-2,-1.5997868E0,-1.7099944E0,-4.400621E-1,-1.8078091E0,5.4678684E-1,9.4081926E-1,-1.175091E0,1.8156034E0,1.5539231E0,6.937696E-1,-3.3300295E-1,-1.4743042E0,4.5966562E-2,9.29406E-2,1.5593413E0,9.366297E-1,1.5282365E0,2.3576414E-2,7.595662E-2,-1.8079295E0,-1.0768914E0,2.5410993E-2,-8.029024E-2,-5.9262842E-2,1.1912801E0,-1.4119958E0,4.7191122E-1,-1.2889746E0,-1.514348E-1,-1.6721551E0,-1.1703914E0,1.282529E0,5.8860236E-1,-6.359285E-1,6.9381845E-1,-2.799776E-1,-9.091803E-2,6.855537E-1,-1.3799424E0,-1.0711175E0,6.535433E-1,-1.6244779E0,5.648535E-2,-1.7214966E0,3.456386E-1,1.8680066E-1,-1.1639519E0,-1.714755E0,-1.8697134E0,1.5025961E0,-7.8635536E-2,1.4712185E0,6.9519067E-1,3.7333593E-2,-8.443565E-2,9.1358185E-2,1.025478E0,1.2536424E0,1.7462627E0,1.422189E0,4.2523575E-1,1.1531368E0,-4.65437E-1,-1.5648471E0,5.6083065E-1,1.2388769E0,-7.1311414E-1,1.6358293E0,1.250548E0,1.3940762E0,4.8101905E-1,-9.286972E-2,1.5763193E0,-1.1716492E0,-1.821028E0,-7.844672E-2,5.8930675E-3,1.5672542E0,6.898537E-1,5.541483E-3,-1.60235E0,-4.8004717E-1,8.051584E-1,-1.0065265E0,-1.7019511E0,7.6547354E-1,-3.6433274E-1,-1.5376303E0,-1.8196825E0,-1.291583E-1,-1.283685E0,5.011415E-1,1.3681413E0,9.8351824E-1,-7.516448E-1,-1.0357741E0,5.557682E-1,4.9086666E-1,1.3875533E0,-1.198667E0,8.703479E-1,1.1520563E0,1.5886448E-1,3.6822055E-2,-8.814451E-2,5.553463E-2,-8.2772434E-2,1.1622515E0,-6.813574E-2,-1.85304E0,-1.3539603E0,3.1242797E-1,-1.7334032E0,1.0057266E0,-5.888046E-2,-1.1047204E-1,1.3565321E0,-1.3618697E0,1.4176622E-1,-5.8261716E-1,-1.7435424E0,-1.8888782E0,-1.8045347E0,2.3803025E-2,8.167978E-2,1.5391636E-2,7.8390464E-2,-5.9647065E-2,3.670769E-2,7.418778E-2,2.5263585E-3,7.594916E-2,3.364324E-2,4.7869857E-2,8.867753E-2,8.467817E-2,4.4955064E-2,1.2419286E-2,5.0990354E-2,-6.473296E-2,7.011112E-2,-4.0067684E-2,1.7407936E-3,-6.484323E-2,-9.558176E-2,6.2153425E-2,-6.1666317E-2,7.6575726E-2,1.5561304E-2,3.254495E-2,-5.581954E-2,7.226174E-2,8.938658E-2,7.760387E-2,-3.2709803E-2,2.0436754E-2,7.5113915E-2,6.9995455E-2,5.7473737E-3,4.527417E-2,-6.682877E-2,8.328278E-2,4.4550773E-2,-8.289325E-2,5.254949E-2,-9.498545E-2,-8.33241E-2,8.3168544E-2,1.3197186E-2,4.956374E-2,-2.9661337E-2,-9.142182E-2,-3.161176E-2,4.6672937E-2,-8.59129E-2,4.944222E-2,-2.957409E-2,-6.7346245E-2,-2.651007E-2,-8.744239E-2,-1.9757887E-2,-3.9125266E-3,6.9802664E-2,2.4346631E-2,-3.1460777E-2,-5.627472E-2,-8.1899166E-2,-9.253232E-2,-4.2050622E-2,6.0225725E-2,-7.698697E-2,-6.918728E-2,-3.2833245E-2,-3.3578694E-2,4.8745643E-2,7.575717E-2,5.0637424E-2,5.3116437E-2,-7.6490544E-2,6.166997E-2,-8.563705E-2,-7.88024E-2,-1.3345881E-2,6.933038E-2,-3.7063833E-2,3.198067E-2,-1.1915452E-2,-6.5366864E-2,7.300608E-2,5.7259453E-3,-8.2684375E-2,5.121443E-3,5.912436E-2,9.117322E-4,6.379426E-2,-1.3127211E-2,6.041649E-2,-1.1654425E-3,7.232531E-2,-4.128663E-2,-9.508005E-2,-2.0733481E-2,-8.0715336E-2,7.179794E-2,-2.7847845E-2,-8.85474E-2,-6.422166E-2,6.758762E-2,1.3255879E-2,1.5334574E-2,-4.7602873E-2,7.5957865E-2,-5.8736708E-2,-7.314526E-2,6.1070055E-2,-3.1430434E-2,6.839313E-2,-3.6089502E-2,8.1528954E-2,-8.847921E-2,-6.185273E-2,-9.4578646E-2,-6.50604E-2,-6.2319636E-2,-9.35664E-2],"categories":[],"categories_nodes":[],"categories_segments":[],"categories_sizes":[],"default_left":[0,0,0,0,0,0,0,0,0,0,0,0,0,0,0,0,0,0,0,0,0,0,0,0,0,0,0,0,0,0,0,0,0,0,0,0,0,0,0,0,0,0,0,0,0,0,0,0,0,0,0,0,0,0,0,0,0,0,0,0,0,0,0,0,0,0,0,0,0,0,0,0,0,0,0,0,0,0,0,0,0,0,0,0,0,0,0,0,0,0,0,0,0,0,0,0,0,0,0,0,0,0,0,0,0,0,0,0,0,0,0,0,0,0,0,0,0,0,0,0,0,0,0,0,0,0,0,0,0,0,0,0,0,0,0,0,0,0,0,0,0,0,0,0,0,0,0,0,0,0,0,0,0,0,0,0,0,0,0,0,0,0,0,0,0,0,0,0,0,0,0,0,0,0,0,0,0,0,0,0,0,0,0,0,0,0,0,0,0,0,0,0,0,0,0,0,0,0,0,0,0,0,0,0,0,0,0,0,0,0,0,0,0,0,0,0,0,0,0,0,0,0,0,0,0,0,0,0,0,0,0,0,0,0,0,0,0,0,0,0,0,0,0,0,0,0,0,0,0,0,0,0,0,0,0,0,0,0,0,0,0,0,0,0,0,0,0,0,0,0,0,0,0,0,0,0,0,0,0,0,0,0,0,0,0,0,0,0,0,0,0,0,0,0,0,0,0,0,0],"id":1,"left_children":[1,3,5,7,9,11,13,15,17,19,21,23,25,27,29,31,33,35,37,-1,39,41,43,45,47,49,-1,51,53,55,57,-1,-1,59,61,63,65,67,69,71,-1,-1,-1,73,75,77,79,81,83,85,87,89,91,93,95,97,99,101,103,105,107,109,111,113,115,117,119,-1,121,123,125,-1,-1,127,129,-1,-1,-1,131,133,135,137,139,141,143,145,147,149,151,153,-1,155,157,159,161,163,-1,165,167,169,171,173,175,177,-1,179,181,-1,-1,-1,183,185,187,189,191,193,195,197,199,201,203,205,207,209,211,213,215,217,219,-1,-1,221,223,-1,225,227,229,231,233,235,237,239,241,243,245,247,249,251,253,255,257,259,261,263,265,267,269,-1,-1,-1,-1,271,-1,273,275,277,279,281,-1,283,285,287,289,291,293,295,297,-1,-1,-1,-1,-1,-1,-1,-1,-1,-1,-1,-1,-1,-1,-1,-1,-1,-1,-1,-1,-1,-1,-1,-1,-1,-1,-1,-1,-1,-1,-1,-1,-1,-1,-1,-1,-1,-1,-1,-1,-1,-1,-1,-1,-1,-1,-1,-1,-1,-1,-1,-1,-1,-1,-1,-1,-1,-1,-1,-1,-1,-1,-1,-1,-1,-1,-1,-1,-1,-1,-1,-1,-1,-1,-1,-1,-1,-1,-1,-1,-1,-1,-1,-1,-1,-1,-1,-1,-1,-1,-1,-1,-1,-1,-1,-1,-1,-1,-1,-1,-1,-1,-1,-1,-1,-1,-1,-1,-1,-1,-1,-1,-1,-1,-1,-1,-1,-1,-1,-1,-1,-1],"loss_changes":[4.905478E4,3.6290176E3,3.5626348E3,2.0139629E3,9.507202E0,3.3462402E3,2.558086E2,9.714844E1,1.0908799E3,2.7416195E1,5.6815796E0,3.3212793E2,3.063459E2,1.7829582E2,1.4896094E2,3.515625E-2,8.8109985E1,3.6512457E2,1.8982544E1,0E0,1.2214894E1,6.169534E0,6.505127E-1,3.7498714E1,2.1564502E2,2.2621259E2,0E0,5.3252037E1,5.251996E1,3.6785254E2,8.140234E1,0E0,0E0,3.3963593E1,7.5739746E0,1.8437E2,6.966092E1,7.230591E0,2.0941345E1,3.52643E-1,0E0,0E0,0E0,7.7301025E-1,7.2112665E0,1.2211433E1,5.0577965E1,2.0144812E2,6.380957E1,5.7640625E1,1.9676283E2,1.6483124E1,4.201326E1,1.4767513E1,1.3659271E1,2.5691162E1,1.329957E2,3.6851562E1,3.3364277E1,1.8586166E1,9.316793E0,8.947754E-1,1.5444397E1,8.5041275E1,5.788703E1,3.296579E1,3.472904E1,0E0,6.831726E0,2.1150185E1,1.3345001E1,0E0,0E0,2.8204346E-1,4.6839247E0,0E0,0E0,0E0,7.4652557E0,5.991379E0,1.6011393E1,4.8694153E1,4.8066208E1,2.0561768E1,3.9808838E1,4.1159058E1,8.131433E1,7.588168E1,5.234877E1,1.6701973E1,0E0,2.1364506E1,1.0339016E1,1.1288525E1,1.702995E1,8.267029E0,0E0,2.6106934E1,7.9600315E0,5.497754E1,3.5321182E1,8.990918E1,1.7939453E0,7.093582E-1,0E0,4.770157E0,8.583328E0,0E0,0E0,0E0,2.8961558E0,1.7894455E1,2.253418E0,1.5158295E1,3.3535667E1,1.6527477E1,4.5107452E1,1.3039429E1,1.1513462E1,3.5682926E0,1.3640642E1,6.043701E0,4.6309006E1,4.8997726E0,1.7997108E1,8.439193E0,8.58725E0,1.1091008E1,2.65625E-1,0E0,0E0,2.707924E0,8.791775E0,0E0,2.7683258E0,2.505251E1,1.00399E1,4.129236E1,9.976624E0,2.4823559E1,4.5256886E1,2.3886353E1,1.5290527E1,6.6504005E1,1.8258698E1,3.584912E1,2.7887695E1,2.500203E1,6.929556E1,4.8880592E1,4.451678E1,3.1926048E1,1.8473267E1,5.36318E0,1.5947614E0,6.483738E0,1.9047422E1,0E0,0E0,0E0,0E0,4.2681293E0,0E0,3.0071716E0,1.9756897E1,7.628601E0,1.5418945E1,9.8468494E-1,0E0,4.4755177E1,1.496809E1,3.2619965E1,1.8615469E1,2.2948126E1,3.3689453E1,2.600586E0,3.3779785E1,0E0,0E0,0E0,0E0,0E0,0E0,0E0,0E0,0E0,0E0,0E0,0E0,0E0,0E0,0E0,0E0,0E0,0E0,0E0,0E0,0E0,0E0,0E0,0E0,0E0,0E0,0E0,0E0,0E0,0E0,0E0,0E0,0E0,0E0,0E0,0E0,0E0,0E0,0E0,0E0,0E0,0E0,0E0,0E0,0E0,0E0,0E0,0E0,0E0,0E0,0E0,0E0,0E0,0E0,0E0,0E0,0E0,0E0,0E0,0E0,0E0,0E0,0E0,0E0,0E0,0E0,0E0,0E0,0E0,0E0,0E0,0E0,0E0,0E0,0E0,0E0,0E0,0E0,0E0,0E0,0E0,0E0,0E0,0E0,0E0,0E0,0E0,0E0,0E0,0E0,0E0,0E0,0E0,0E0,0E0,0E0,0E0,0E0,0E0,0E0,0E0,0E0,0E0,0E0,0E0,0E0,0E0,0E0,0E0,0E0,0E0,0E0,0E0,0E0,0E0,0E0,0E0,0E0,0E0,0E0,0E0,0E0],"parents":[2147483647,0,0,1,1,2,2,3,3,4,4,5,5,6,6,7,7,8,8,9,9,10,10,11,11,12,12,13,13,14,14,15,15,16,16,17,17,18,18,20,20,21,21,22,22,23,23,24,24,25,25,27,27,28,28,29,29,30,30,33,33,34,34,35,35,36,36,37,37,38,38,39,39,43,43,44,44,45,45,46,46,47,47,48,48,49,49,50,50,51,51,52,52,53,53,54,54,55,55,56,56,57,57,58,58,59,59,60,60,61,61,62,62,63,63,64,64,65,65,66,66,68,68,69,69,70,70,73,73,74,74,78,78,79,79,80,80,81,81,82,82,83,83,84,84,85,85,86,86,87,87,88,88,89,89,91,91,92,92,93,93,94,94,95,95,97,97,98,98,99,99,100,100,101,101,102,102,103,103,105,105,106,106,110,110,111,111,112,112,113,113,114,114,115,115,116,116,117,117,118,118,119,119,120,120,121,121,122,122,123,123,124,124,125,125,126,126,127,127,128,128,131,131,132,132,134,134,135,135,136,136,137,137,138,138,139,139,140,140,141,141,142,142,143,143,144,144,145,145,146,146,147,147,148,148,149,149,150,150,151,151,152,152,153,153,154,154,155,155,156,156,161,161,163,163,164,164,165,165,166,166,167,167,169,169,170,170,171,171,172,172,173,173,174,174,175,175,176,176],"right_children":[2,4,6,8,10,12,14,16,18,20,22,24,26,28,30,32,34,36,38,-1,40,42,44,46,48,50,-1,52,54,56,58,-1,-1,60,62,64,66,68,70,72,-1,-1,-1,74,76,78,80,82,84,86,88,90,92,94,96,98,100,102,104,106,108,110,112,114,116,118,120,-1,122,124,126,-1,-1,128,130,-1,-1,-1,132,134,136,138,140,142,144,146,148,150,152,154,-1,156,158,160,162,164,-1,166,168,170,172,174,176,178,-1,180,182,-1,-1,-1,184,186,188,190,192,194,196,198,200,202,204,206,208,210,212,214,216,218,220,-1,-1,222,224,-1,226,228,230,232,234,236,238,240,242,244,246,248,250,252,254,256,258,260,262,264,266,268,270,-1,-1,-1,-1,272,-1,274,276,278,280,282,-1,284,286,288,290,292,294,296,298,-1,-1,-1,-1,-1,-1,-1,-1,-1,-1,-1,-1,-1,-1,-1,-1,-1,-1,-1,-1,-1,-1,-1,-1,-1,-1,-1,-1,-1,-1,-1,-1,-1,-1,-1,-1,-1,-1,-1,-1,-1,-1,-1,-1,-1,-1,-1,-1,-1,-1,-1,-1,-1,-1,-1,-1,-1,-1,-1,-1,-1,-1,-1,-1,-1,-1,-1,-1,-1,-1,-1,-1,-1,-1,-1,-1,-1,-1,-1,-1,-1,-1,-1,-1,-1,-1,-1,-1,-1,-1,-1,-1,-1,-1,-1,-1,-1,-1,-1,-1,-1,-1,-1,-1,-1,-1,-1,-1,-1,-1,-1,-1,-1,-1,-1,-1,-1,-1,-1,-1,-1,-1],"split_conditions":[8.504E0,3.81E0,8.866E0,8.388E0,5.5525E1,6.5325E1,-6.4E-2,8.344E0,6.4E1,2.9476826E0,-2.6E-2,-2.2E-2,3.855E0,9.174E0,9.044E0,8.334E0,6.08E1,4.25E-2,8.462E0,-8.873712E-2,1E0,1.908861E-1,8.496E0,8.592E0,8.592E0,8.704E0,-9.3460515E-2,3.668E0,6.7325E1,6.6975E1,3.452E0,9.4872E-2,8.881998E-2,4.5E-2,-1.4E-2,8.448E0,6.12E1,-1.8E-2,6.529E1,2.34E-1,-6.271001E-2,-6.086878E-2,5.254949E-2,5.97E0,1.54E-1,6.0995E1,6.3475E1,6.315E1,6.4E1,1E0,6.6475E1,-1.04E-2,5E-2,9.314E0,2E-2,1.3369274E0,-1.6E-2,9.304E0,5.6785E0,8.35E0,8.36E0,-9.2E-3,6.3245E1,-1.6E-2,-2E-2,1.6450684E-1,8.406E0,9.29406E-2,4.25E-2,-1.6E-2,4.999999E-2,2.3576414E-2,7.595662E-2,1.434E0,5.395E0,2.5410993E-2,-8.029024E-2,-5.9262842E-2,1.1401754E-1,-2.5E-1,-1.25E-1,4.25E-2,-1.8E-2,4.25E-2,-1.2E-2,6.577E1,4.3E-2,4.45E-2,6.8575E1,4.5E-2,-9.091803E-2,9.004E0,3.635E0,-1.88E-1,6.735E1,7.161E1,5.648535E-2,-4.4E-2,-1.8E-2,7.0125E1,1.6130439E0,-2.8E-2,7.099E1,5E-2,-7.8635536E-2,6.2249493E-2,4.808845E-2,3.7333593E-2,-8.443565E-2,9.1358185E-2,0E0,8.374E0,-2.25E-1,8.406E0,6.315E1,7.623975E-2,1E0,4.3E-2,-1.28E-2,6.1875E1,-1.8E-2,6.5155E1,1E0,-2E-1,-1.6E-2,8.47E0,1E0,8.14E0,1.723006E-1,-7.844672E-2,5.8930675E-3,8.578E0,-1.6E-2,5.541483E-3,-1.12E-2,8.656E0,4.15E-2,1E0,4.593E0,6.415E1,8.215838E-2,9.420722E-2,5.7875E0,8.696E0,6.5175E1,1.514513E-1,8.636E0,6.7365E1,-2E-2,2.7782637E-1,1E0,-9.2E-3,-5.25E-1,8.928E0,-2E-1,3.655E0,7.17E1,3.6822055E-2,-8.814451E-2,5.553463E-2,-8.2772434E-2,2.9079633E-2,-6.813574E-2,-2E-2,7.175E1,4E-2,6.645E1,8.904E0,-5.888046E-2,-1.2E-2,0E0,7.099E1,-1E-2,-1.2E-2,7.1125E1,3.78E-1,9.528E0,2.3803025E-2,8.167978E-2,1.5391636E-2,7.8390464E-2,-5.9647065E-2,3.670769E-2,7.418778E-2,2.5263585E-3,7.594916E-2,3.364324E-2,4.7869857E-2,8.867753E-2,8.467817E-2,4.4955064E-2,1.2419286E-2,5.0990354E-2,-6.473296E-2,7.011112E-2,-4.0067684E-2,1.7407936E-3,-6.484323E-2,-9.558176E-2,6.2153425E-2,-6.1666317E-2,7.6575726E-2,1.5561304E-2,3.254495E-2,-5.581954E-2,7.226174E-2,8.938658E-2,7.760387E-2,-3.2709803E-2,2.0436754E-2,7.5113915E-2,6.9995455E-2,5.7473737E-3,4.527417E-2,-6.682877E-2,8.328278E-2,4.4550773E-2,-8.289325E-2,5.254949E-2,-9.498545E-2,-8.33241E-2,8.3168544E-2,1.3197186E-2,4.956374E-2,-2.9661337E-2,-9.142182E-2,-3.161176E-2,4.6672937E-2,-8.59129E-2,4.944222E-2,-2.957409E-2,-6.7346245E-2,-2.651007E-2,-8.744239E-2,-1.9757887E-2,-3.9125266E-3,6.9802664E-2,2.4346631E-2,-3.1460777E-2,-5.627472E-2,-8.1899166E-2,-9.253232E-2,-4.2050622E-2,6.0225725E-2,-7.698697E-2,-6.918728E-2,-3.2833245E-2,-3.3578694E-2,4.8745643E-2,7.575717E-2,5.0637424E-2,5.3116437E-2,-7.6490544E-2,6.166997E-2,-8.563705E-2,-7.88024E-2,-1.3345881E-2,6.933038E-2,-3.7063833E-2,3.198067E-2,-1.1915452E-2,-6.5366864E-2,7.300608E-2,5.7259453E-3,-8.2684375E-2,5.121443E-3,5.912436E-2,9.117322E-4,6.379426E-2,-1.3127211E-2,6.041649E-2,-1.1654425E-3,7.232531E-2,-4.128663E-2,-9.508005E-2,-2.0733481E-2,-8.0715336E-2,7.179794E-2,-2.7847845E-2,-8.85474E-2,-6.422166E-2,6.758762E-2,1.3255879E-2,1.5334574E-2,-4.7602873E-2,7.5957865E-2,-5.8736708E-2,-7.314526E-2,6.1070055E-2,-3.1430434E-2,6.839313E-2,-3.6089502E-2,8.1528954E-2,-8.847921E-2,-6.185273E-2,-9.4578646E-2,-6.50604E-2,-6.2319636E-2,-9.35664E-2],"split_indices":[1,26,4,1,29,29,25,2,29,17,2,25,27,1,4,2,29,16,4,0,13,19,1,1,1,4,0,16,29,29,24,0,0,6,25,4,29,25,18,24,0,0,0,6,25,18,5,29,29,13,5,20,23,1,3,19,3,2,16,2,1,20,18,25,25,19,2,0,16,3,19,0,0,20,27,0,0,0,19,23,23,16,3,16,20,18,16,16,5,26,0,1,27,25,5,18,0,25,3,18,17,25,18,23,0,19,19,0,0,0,23,1,23,2,5,19,13,16,20,29,25,18,13,23,25,2,13,1,19,0,0,1,3,0,20,1,16,13,16,29,19,19,16,4,29,19,1,18,3,19,13,20,23,1,23,26,18,0,0,0,0,17,0,3,5,6,29,1,0,25,25,18,25,3,29,3,2,0,0,0,0,0,0,0,0,0,0,0,0,0,0,0,0,0,0,0,0,0,0,0,0,0,0,0,0,0,0,0,0,0,0,0,0,0,0,0,0,0,0,0,0,0,0,0,0,0,0,0,0,0,0,0,0,0,0,0,0,0,0,0,0,0,0,0,0,0,0,0,0,0,0,0,0,0,0,0,0,0,0,0,0,0,0,0,0,0,0,0,0,0,0,0,0,0,0,0,0,0,0,0,0,0,0,0,0,0,0,0,0,0,0,0,0,0,0,0,0,0,0],"split_type":[0,0,0,0,0,0,0,0,0,0,0,0,0,0,0,0,0,0,0,0,0,0,0,0,0,0,0,0,0,0,0,0,0,0,0,0,0,0,0,0,0,0,0,0,0,0,0,0,0,0,0,0,0,0,0,0,0,0,0,0,0,0,0,0,0,0,0,0,0,0,0,0,0,0,0,0,0,0,0,0,0,0,0,0,0,0,0,0,0,0,0,0,0,0,0,0,0,0,0,0,0,0,0,0,0,0,0,0,0,0,0,0,0,0,0,0,0,0,0,0,0,0,0,0,0,0,0,0,0,0,0,0,0,0,0,0,0,0,0,0,0,0,0,0,0,0,0,0,0,0,0,0,0,0,0,0,0,0,0,0,0,0,0,0,0,0,0,0,0,0,0,0,0,0,0,0,0,0,0,0,0,0,0,0,0,0,0,0,0,0,0,0,0,0,0,0,0,0,0,0,0,0,0,0,0,0,0,0,0,0,0,0,0,0,0,0,0,0,0,0,0,0,0,0,0,0,0,0,0,0,0,0,0,0,0,0,0,0,0,0,0,0,0,0,0,0,0,0,0,0,0,0,0,0,0,0,0,0,0,0,0,0,0,0,0,0,0,0,0,0,0,0,0,0,0,0,0,0,0,0,0,0,0,0,0,0,0,0,0,0,0,0,0,0,0,0,0,0,0],"sum_hessian":[2.3077105E4,1.0785012E4,1.2292094E4,1.0459822E4,3.2518903E2,3.6538528E3,8.638241E3,8.719752E3,1.7400709E3,2.012497E1,3.0506406E2,2.302014E3,1.351839E3,3.1957193E2,8.318669E3,7.9566675E3,7.6308435E2,9.367594E2,8.033116E2,1.3219869E1,6.9051E0,2.9111695E0,3.021529E2,1.13141205E2,2.1888726E3,1.3084388E3,4.3400146E1,1.24654015E2,1.9491791E2,1.35201E3,6.966659E3,7.7024814E3,2.5418585E2,1.5667398E2,6.064104E2,7.272428E2,2.0951657E2,5.3128723E2,2.7202432E2,5.1568265E0,1.7482736E0,1.746435E0,1.1647344E0,2.954967E2,6.6561913E0,4.5832123E1,6.730908E1,6.7494604E2,1.5139266E3,7.7575055E2,5.326883E2,2.7801147E1,9.685287E1,2.0471521E1,1.7444638E2,1.0604049E3,2.9160522E2,6.9523564E3,1.4302887E1,1.4951248E2,7.161492E0,3.0209753E2,3.0431284E2,4.3685153E2,2.9039124E2,1.7313943E2,3.637715E1,1.5643146E2,3.748558E2,1.03697365E2,1.6832695E2,1.6630956E0,3.4937308E0,2.8884363E2,6.6530695E0,1.6645412E0,4.99165E0,1.4985577E0,4.4333565E1,1.9056124E1,4.8252956E1,4.3114383E2,2.438022E2,1.1760574E3,3.3786926E2,6.2451666E2,1.5123386E2,1.5704169E2,3.7564664E2,1.381722E1,1.3983929E1,8.669784E1,1.0155028E1,6.412216E0,1.4059305E1,1.7328369E2,1.1626892E0,1.0546661E3,5.738767E0,1.566735E2,1.3493172E2,2.788862E3,4.163494E3,1.005813E1,4.2447577E0,4.5744427E1,1.0376806E2,1.4146632E0,5.7468286E0,2.964477E2,5.6498213E0,1.2175172E2,1.8256114E2,1.1651075E2,3.203408E2,2.312961E1,2.6726163E2,1.6598582E2,7.1536055E0,1.390037E1,2.2476782E1,2.969932E2,7.786259E1,5.0716606E1,5.2980755E1,4.8220134E0,1.6350493E2,7.650657E0,2.8119296E2,4.490521E0,2.1625485E0,2.4121471E1,2.0212093E1,2.1637764E0,1.6892347E1,1.239752E1,3.585544E1,2.5807507E2,1.7306874E2,4.54524E1,1.983498E2,6.2111115E2,5.5494617E2,3.3365044E1,3.0450424E2,6.234496E1,5.6217175E2,1.1701925E2,3.421461E1,1.1768583E2,3.9355854E1,2.9194565E2,8.370098E1,7.658697E0,6.1585226E0,4.5346176E1,4.135166E1,1.4145195E0,8.740509E0,1.1642556E0,5.2479606E0,1.1564984E1,2.494321E0,9.075458E1,8.252911E1,5.991164E0,1.0486749E3,4.240798E0,1.4979693E0,1.2564734E2,3.102615E1,1.17133835E2,1.7797888E1,6.968182E1,2.7191802E3,3.1958313E3,9.676629E2,1.6627295E0,8.3954E0,3.8277798E0,4.191665E1,1.4992253E0,1.0226883E2,3.4882743E0,2.161547E0,8.2461815E1,3.92899E1,7.310391E0,1.7525075E2,7.523941E1,4.1271336E1,2.479947E2,7.23461E1,1.7485667E0,2.1381044E1,1.595338E2,1.07727844E2,9.6305115E1,6.96807E1,5.4053497E0,1.7482556E0,1.0072065E1,3.8283033E0,4.988848E0,1.7487934E1,1.363841E2,1.6060912E2,6.738103E1,1.0481562E1,5.4909325E0,4.5225674E1,1.4289073E1,3.8691685E1,2.825701E0,1.9963123E0,1.4338298E2,2.012195E1,6.485923E0,1.1647344E0,1.788476E2,1.0234537E2,2.220745E1,1.9140217E0,1.6551292E1,3.6608012E0,1.2982092E1,3.9102547E0,5.9039097E0,6.493611E0,3.1945898E1,3.9095387E0,1.4944719E2,1.08627884E2,1.6674646E2,6.322274E0,1.9815247E1,2.5637156E1,4.687317E1,1.5147662E2,1.2401487E2,4.9709628E2,5.3706323E2,1.7882978E1,1.7225143E1,1.61399E1,2.6155765E2,4.2946598E1,1.781943E1,4.452553E1,3.9537027E2,1.6680147E2,1.1402121E2,2.998042E0,1.1069135E1,2.3145473E1,6.850068E1,4.9185154E1,2.3947142E1,1.5408711E1,2.4258319E2,4.9362442E1,1.7486287E0,8.1952354E1,2.1634154E0,5.495281E0,2.1636658E0,3.9948568E0,4.5777683E0,4.0768406E1,3.003932E1,1.1312341E1,2.414145E0,9.150839E0,4.9089885E0,8.584559E1,1.8473236E1,6.405588E1,2.3292775E0,3.6618867E0,9.650305E2,8.364441E1,2.327948E0,1.91285E0,8.443134E1,4.1215996E1,2.9528866E1,1.4972855E0,1.1314237E2,3.9914594E0,1.1229519E1,6.5683675E0,6.6193245E1,3.4885726E0,2.5838347E3,1.3534547E2,3.1790352E3,1.679606E1,1.05525505E2,8.621374E2],"tree_param":{"num_deleted":"0","num_feature":"30","num_nodes":"299","size_leaf_vector":"1"}},{"base_weights":[-4.7823013E-4,1.5059806E0,-1.2798837E0,1.6032274E0,-1.6010993E0,-5.303974E-1,-1.6340703E0,1.7775162E0,6.430512E-1,-1.4289228E0,-9.097208E-2,-1.2574998E0,5.004011E-1,-7.4923134E-1,-1.6699777E0,1.808815E0,1.3877472E0,-1.6106431E-1,1.3667438E0,-1.5576127E0,-7.821222E-1,4.6453106E-1,-1.3243469E0,9.045878E-1,-6.613531E-2,-1.7960158E-1,-1.4868165E0,-1.3748939E0,-1.7181921E0,9.06754E-2,1.6218795E0,5.52924E-1,1.5822265E0,7.8458047E-1,-4.049755E-1,6.46032E-1,1.4586627E0,-1.6628324E0,-1.1495157E0,4.228407E-1,-1.3388916E0,1.384135E0,5.0520733E-2,-1.0054566E0,-1.5779731E0,9.9026155E-1,-8.897551E-2,-9.339462E-1,4.001761E-1,6.0438786E-2,-1.207778E0,2.994036E-1,-1.5966067E0,-1.6500626E0,-5.3959197E-1,-1.7222822E0,2.7046627E-1,1.1339812E0,1.6968156E0,1.1751165E0,1.7877558E-1,1.4055489E0,1.7074819E0,1.2507212E0,3.1206602E-1,6.563396E-2,-8.705947E-1,1.1796519E0,-9.879993E-2,1.7055726E0,1.3490902E0,-1.4209181E-1,-1.6964242E0,9.761606E-1,-1.4808254E0,9.968162E-1,-6.32877E-2,-8.6614415E-2,5.802145E-1,1.1689971E-2,1.4617813E0,-1.0158931E0,6.319755E-1,-1.3066064E0,-3.582499E-1,-1.7419239E0,-1.4367445E0,5.428878E-1,1.2285862E0,6.1949056E-1,-1.1002274E0,5.004468E-1,-8.7542795E-2,-1.4494312E0,2.2170599E-1,2.0110622E-1,-9.063705E-2,-6.1775483E-2,8.282266E-1,-1.6282146E0,5.490836E-2,-1.7039537E0,-1.2392682E0,-7.781523E-1,1.1998883E0,-6.8234557E-1,-1.7265483E0,9.694918E-1,-7.334565E-2,7.698744E-2,6.559619E-1,6.485227E-1,8.558201E-2,7.7980185E-1,1.4697555E0,-1.8844561E-1,6.855616E-1,1.6943725E0,1.0479704E0,8.577499E-2,9.239545E-1,6.080702E-1,1.4217246E0,1.2368557E0,-2.755338E-1,6.462111E-1,-2.4302238E-1,-1.1106195E0,-3.4276778E-1,1.407845E0,-1.5242739E-2,1.1555421E0,-2.6704362E-1,8.854709E-2,1.4729152E0,1.3816096E0,2.9119515E-1,-5.491512E-2,5.1190507E-2,-1.3413218E0,-9.0519436E-2,6.686335E-2,1.1378921E-2,-2.1021354E-1,-1.6086745E0,8.523338E-2,2.1215482E-1,-5.064262E-2,7.398134E-2,2.26012E-2,7.567841E-2,5.978451E-1,-1.3332839E0,8.5361683E-1,-4.8772687E-1,-9.8033226E-1,-1.4793535E0,-2.2446243E-1,-9.126186E-2,-1.7641393E0,-5.498267E-1,5.4272808E-2,-1.4488945E0,1.3633412E0,3.8554084E-1,1.3177555E0,5.384347E-1,-7.6884264E-1,9.7401834E-1,-1.4890406E0,-4.480855E-1,2.4137364E-1,1.3412031E0,2.5432233E-2,-8.6736E-2,9.242045E-1,-2.0211801E-1,-6.877149E-2,8.473415E-1,7.578302E-2,-5.6626655E-2,1.7711872E-2,-1.6595348E0,9.596997E-3,-1.7096463E0,-1.3487928E0,6.056755E-1,7.880927E-2,-9.569806E-1,1.4124345E0,-6.470739E-2,1.0226488E0,-8.6867325E-2,-1.6474639E0,-1.7829475E0,7.733671E-2,3.4161997E-1,-5.7410773E-2,4.4599187E-2,8.862204E-3,4.9104962E-2,5.147595E-2,-4.2134277E-3,1.2216521E-2,7.7970736E-2,2.6394097E-2,-4.086086E-2,-3.186475E-2,4.421829E-2,1.9300956E-2,8.545923E-2,5.9786476E-2,2.5630057E-2,6.457313E-2,9.29844E-3,6.3972615E-2,-2.6663601E-2,-5.756696E-2,7.481173E-2,6.876238E-2,-5.4608554E-2,5.0834008E-2,-3.6852423E-2,4.582865E-2,8.787382E-3,1.5472421E-2,-2.19313E-2,-1.376293E-2,-6.2069613E-2,1.5115234E-2,-3.8785677E-2,7.697065E-2,3.460778E-2,-8.181763E-2,5.6285888E-2,2.1991603E-2,6.902417E-2,-1.6046668E-3,-7.9575844E-2,2.4769505E-2,7.63293E-2,5.599276E-2,7.801139E-2,4.252105E-2,-7.625841E-2,-7.3575206E-2,4.3703057E-2,-5.9226066E-2,5.603967E-2,-8.7757885E-2,-4.094597E-2,5.040436E-2,-5.4694574E-2,5.285911E-2,4.679615E-3,-8.815605E-2,-1.8611036E-2,6.3540906E-2,1.6621633E-2,-7.818649E-2,4.516375E-2,-2.5208557E-2,-7.44335E-2,6.3325427E-3,-7.481932E-2,-3.0413989E-2,7.522116E-3,-8.898159E-2,-2.9317308E-2,7.064796E-2,-5.852857E-2,-6.0524423E-2,-7.798439E-2,7.131418E-2,1.9981975E-2,4.2233884E-2,2.222628E-3,7.173623E-2,5.2431196E-2,5.3252824E-2,-7.40825E-2,5.07103E-2,-7.479354E-2,1.6143632E-3,6.307441E-2,-7.9154745E-2,7.2020054E-2,9.398398E-3,-5.8399577E-2,3.2415863E-2,-6.3053193E-3,-6.021997E-2,6.959816E-2,2.0485522E-2,5.6279983E-2,6.1220463E-2,-2.8487204E-2,-1.40128685E-2,7.24697E-2,-3.9118167E-2,-8.435733E-2,-8.943061E-3,-8.576616E-2,2.4137103E-3,-7.53103E-2,7.556264E-2,-5.8793228E-2,-8.1759244E-2,2.2218017E-2,-3.6737937E-2,-8.372706E-2,1.2261342E-2,7.79925E-2,-5.484378E-2,7.122153E-2,-8.5180275E-2,-4.2293947E-2,-8.935901E-2,-4.680172E-2,5.6870993E-2,-6.1350044E-2],"categories":[],"categories_nodes":[],"categories_segments":[],"categories_sizes":[],"default_left":[0,0,0,0,0,0,0,0,0,0,0,0,0,0,0,0,0,0,0,0,0,0,0,0,0,0,0,0,0,0,0,0,0,0,0,0,0,0,0,0,0,0,0,0,0,0,0,0,0,0,0,0,0,0,0,0,0,0,0,0,0,0,0,0,0,0,0,0,0,0,0,0,0,0,0,0,0,0,0,0,0,0,0,0,0,0,0,0,0,0,0,0,0,0,0,0,0,0,0,0,0,0,0,0,0,0,0,0,0,0,0,0,0,0,0,0,0,0,0,0,0,0,0,0,0,0,0,0,0,0,0,0,0,0,0,0,0,0,0,0,0,0,0,0,0,0,0,0,0,0,0,0,0,0,0,0,0,0,0,0,0,0,0,0,0,0,0,0,0,0,0,0,0,0,0,0,0,0,0,0,0,0,0,0,0,0,0,0,0,0,0,0,0,0,0,0,0,0,0,0,0,0,0,0,0,0,0,0,0,0,0,0,0,0,0,0,0,0,0,0,0,0,0,0,0,0,0,0,0,0,0,0,0,0,0,0,0,0,0,0,0,0,0,0,0,0,0,0,0,0,0,0,0,0,0,0,0,0,0,0,0,0,0,0,0,0,0,0,0,0,0,0,0,0,0,0,0,0,0,0,0,0,0,0,0,0,0,0,0,0,0,0,0,0,0,0,0,0,0,0,0,0,0,0,0,0,0,0,0,0,0,0,0,0,0,0,0,0,0,0,0],"id":2,"left_children":[1,3,5,7,9,11,13,15,17,19,-1,21,23,25,27,29,31,33,35,37,39,41,43,45,47,49,51,53,55,-1,57,59,61,63,65,67,69,71,73,75,77,79,81,83,85,87,-1,89,91,93,95,97,99,101,103,105,107,109,111,113,115,117,119,121,123,125,127,129,131,133,135,137,139,141,143,145,-1,-1,147,-1,149,151,153,155,157,159,161,163,165,167,169,171,-1,173,175,177,-1,-1,179,181,-1,183,185,187,189,191,193,195,-1,-1,197,199,-1,201,203,205,207,209,211,-1,213,215,217,219,221,223,225,227,229,231,233,235,237,-1,239,241,243,-1,-1,245,-1,-1,-1,247,249,-1,251,-1,-1,-1,-1,253,255,257,259,261,263,265,-1,267,269,-1,271,273,275,277,279,281,283,285,287,289,291,-1,-1,293,295,-1,297,-1,-1,-1,299,-1,301,303,305,307,309,311,-1,313,-1,315,317,-1,319,-1,-1,-1,-1,-1,-1,-1,-1,-1,-1,-1,-1,-1,-1,-1,-1,-1,-1,-1,-1,-1,-1,-1,-1,-1,-1,-1,-1,-1,-1,-1,-1,-1,-1,-1,-1,-1,-1,-1,-1,-1,-1,-1,-1,-1,-1,-1,-1,-1,-1,-1,-1,-1,-1,-1,-1,-1,-1,-1,-1,-1,-1,-1,-1,-1,-1,-1,-1,-1,-1,-1,-1,-1,-1,-1,-1,-1,-1,-1,-1,-1,-1,-1,-1,-1,-1,-1,-1,-1,-1,-1,-1,-1,-1,-1,-1,-1,-1,-1,-1,-1,-1,-1,-1,-1,-1,-1,-1,-1,-1,-1,-1,-1,-1,-1,-1,-1,-1,-1,-1,-1,-1,-1,-1],"loss_changes":[4.408155E4,3.1762832E3,3.2822383E3,1.7033555E3,9.402771E0,2.976484E3,2.6557812E2,1.0264844E2,9.117317E2,1.4027893E1,0E0,2.6865454E2,3.7628033E2,1.381008E2,1.1245117E2,4.0546875E0,1.0385083E2,1.7165744E2,5.3678833E1,4.605194E0,2.2305767E1,3.3339466E1,1.7972339E2,2.2227936E2,2.7758554E2,4.6215115E1,2.859433E1,2.6076514E2,5.6851562E1,0E0,5.5633545E0,2.8519337E1,9.165405E0,3.323349E1,1.2960126E2,3.78978E1,1.746106E1,5.808075E0,2.5635048E1,1.19239235E1,1.7919018E1,2.0880852E0,3.8806103E1,1.9362988E2,2.6368408E1,9.848242E1,0E0,6.2607346E1,9.713551E1,3.745995E1,3.0565807E1,8.445518E0,1.3306122E1,1.6834229E1,1.1860713E2,2.9517578E1,1.9751942E1,4.863472E0,1.6174622E0,4.230915E0,1.4691265E1,2.1199707E1,3.069458E-1,7.5440445E0,4.2260414E1,5.3011505E1,3.7277145E1,1.5143059E1,8.876448E0,7.485962E-1,1.7167358E1,5.1942716E0,2.2565308E0,1.1105809E0,4.5536423E0,4.509185E0,0E0,0E0,8.032761E0,0E0,6.3848114E-1,1.2116833E1,1.0454168E1,3.6833862E1,6.1925873E1,1.4186523E1,2.2275513E1,4.143091E1,3.6579468E1,1.247321E1,5.4334442E1,9.272675E1,0E0,9.178663E0,4.147474E1,1.2927235E1,0E0,0E0,1.1690449E1,8.911865E0,0E0,8.464355E0,2.1613235E1,3.838414E1,2.0165672E1,5.559459E1,2.7791016E1,3.5905342E0,0E0,0E0,7.6862445E0,4.6378887E-1,0E0,4.8001986E0,2.4009285E0,2.1220182E1,9.26644E0,1.6936951E0,7.4575424E0,0E0,1.1750016E0,1.4343519E1,1.3165573E1,1.1221127E1,2.9368507E1,1.2895664E1,2.1024487E1,2.1930481E1,2.658791E1,3.3201752E0,2.0120121E1,1.9604921E-1,1.1341423E1,0E0,2.0956268E0,2.1406189E1,1.8055073E1,0E0,0E0,1.0510914E1,0E0,0E0,0E0,6.389466E0,1.7104797E0,0E0,6.6135526E0,0E0,0E0,0E0,0E0,9.0231216E-1,7.100952E0,6.998125E0,1.2368168E1,5.6881516E1,1.228418E1,4.213839E1,0E0,9.200317E0,1.6180908E1,0E0,1.5882202E1,2.5784225E0,4.288789E1,1.5365845E1,7.713132E1,8.522844E0,5.215521E0,3.960431E1,3.7974327E1,4.9099976E1,1.4650894E1,0E0,0E0,4.964264E0,4.648668E1,0E0,6.385026E0,0E0,0E0,0E0,1.8807678E0,0E0,6.22583E0,2.1505905E1,1.2194949E1,2.8346453E1,3.1760605E1,5.184601E0,0E0,1.1837693E1,0E0,1.2821582E2,1.2699219E1,0E0,9.793059E0,0E0,0E0,0E0,0E0,0E0,0E0,0E0,0E0,0E0,0E0,0E0,0E0,0E0,0E0,0E0,0E0,0E0,0E0,0E0,0E0,0E0,0E0,0E0,0E0,0E0,0E0,0E0,0E0,0E0,0E0,0E0,0E0,0E0,0E0,0E0,0E0,0E0,0E0,0E0,0E0,0E0,0E0,0E0,0E0,0E0,0E0,0E0,0E0,0E0,0E0,0E0,0E0,0E0,0E0,0E0,0E0,0E0,0E0,0E0,0E0,0E0,0E0,0E0,0E0,0E0,0E0,0E0,0E0,0E0,0E0,0E0,0E0,0E0,0E0,0E0,0E0,0E0,0E0,0E0,0E0,0E0,0E0,0E0,0E0,0E0,0E0,0E0,0E0,0E0,0E0,0E0,0E0,0E0,0E0,0E0,0E0,0E0,0E0,0E0,0E0,0E0,0E0,0E0,0E0,0E0,0E0,0E0,0E0,0E0,0E0,0E0,0E0,0E0,0E0,0E0,0E0,0E0,0E0,0E0,0E0,0E0,0E0,0E0,0E0],"parents":[2147483647,0,0,1,1,2,2,3,3,4,4,5,5,6,6,7,7,8,8,9,9,11,11,12,12,13,13,14,14,15,15,16,16,17,17,18,18,19,19,20,20,21,21,22,22,23,23,24,24,25,25,26,26,27,27,28,28,30,30,31,31,32,32,33,33,34,34,35,35,36,36,37,37,38,38,39,39,40,40,41,41,42,42,43,43,44,44,45,45,47,47,48,48,49,49,50,50,51,51,52,52,53,53,54,54,55,55,56,56,57,57,58,58,59,59,60,60,61,61,62,62,63,63,64,64,65,65,66,66,67,67,68,68,69,69,70,70,71,71,72,72,73,73,74,74,75,75,78,78,80,80,81,81,82,82,83,83,84,84,85,85,86,86,87,87,88,88,89,89,90,90,91,91,93,93,94,94,95,95,98,98,99,99,101,101,102,102,103,103,104,104,105,105,106,106,107,107,110,110,111,111,113,113,114,114,115,115,116,116,117,117,118,118,120,120,121,121,122,122,123,123,124,124,125,125,126,126,127,127,128,128,129,129,130,130,131,131,132,132,134,134,135,135,136,136,139,139,143,143,144,144,146,146,151,151,152,152,153,153,154,154,155,155,156,156,157,157,159,159,160,160,162,162,163,163,164,164,165,165,166,166,167,167,168,168,169,169,170,170,171,171,172,172,175,175,176,176,178,178,182,182,184,184,185,185,186,186,187,187,188,188,189,189,191,191,193,193,194,194,196,196],"right_children":[2,4,6,8,10,12,14,16,18,20,-1,22,24,26,28,30,32,34,36,38,40,42,44,46,48,50,52,54,56,-1,58,60,62,64,66,68,70,72,74,76,78,80,82,84,86,88,-1,90,92,94,96,98,100,102,104,106,108,110,112,114,116,118,120,122,124,126,128,130,132,134,136,138,140,142,144,146,-1,-1,148,-1,150,152,154,156,158,160,162,164,166,168,170,172,-1,174,176,178,-1,-1,180,182,-1,184,186,188,190,192,194,196,-1,-1,198,200,-1,202,204,206,208,210,212,-1,214,216,218,220,222,224,226,228,230,232,234,236,238,-1,240,242,244,-1,-1,246,-1,-1,-1,248,250,-1,252,-1,-1,-1,-1,254,256,258,260,262,264,266,-1,268,270,-1,272,274,276,278,280,282,284,286,288,290,292,-1,-1,294,296,-1,298,-1,-1,-1,300,-1,302,304,306,308,310,312,-1,314,-1,316,318,-1,320,-1,-1,-1,-1,-1,-1,-1,-1,-1,-1,-1,-1,-1,-1,-1,-1,-1,-1,-1,-1,-1,-1,-1,-1,-1,-1,-1,-1,-1,-1,-1,-1,-1,-1,-1,-1,-1,-1,-1,-1,-1,-1,-1,-1,-1,-1,-1,-1,-1,-1,-1,-1,-1,-1,-1,-1,-1,-1,-1,-1,-1,-1,-1,-1,-1,-1,-1,-1,-1,-1,-1,-1,-1,-1,-1,-1,-1,-1,-1,-1,-1,-1,-1,-1,-1,-1,-1,-1,-1,-1,-1,-1,-1,-1,-1,-1,-1,-1,-1,-1,-1,-1,-1,-1,-1,-1,-1,-1,-1,-1,-1,-1,-1,-1,-1,-1,-1,-1,-1,-1,-1,-1,-1,-1],"split_conditions":[8.496E0,3.81E0,8.89E0,8.388E0,6.2575E1,6.4975E1,-6.4E-2,8.36E0,6.3575E1,6.1875E1,-9.097208E-2,-2.6E-2,8.712E0,9.422E0,9.044E0,8.354E0,6.08E1,-1.6E-2,6.4E1,3.0483434E0,6.1875E1,8.558E0,8.642E0,3.8175E0,6.655E1,0E0,6.7325E1,6.6725E1,3.452E0,9.06754E-2,-1.28E-2,8.368E0,6.3245E1,8.432E0,4.25E-2,8.44E0,-1.8E-2,1.434E0,5.5535E1,1E0,5.8875E0,-2E-2,6.3475E1,6.315E1,6.2275E1,6.6155E1,-8.897551E-2,-5.6E-2,3.81E0,3.63E0,6.6575E1,3.715E0,2E-2,6.6025E1,7.0075E1,5.6725E1,6.025E0,4.25E-2,3.75E-2,-1.2E-2,0E0,-1.4E-2,-8.8E-3,-1.24E-2,-2E-2,8.416E0,6.0875E1,6.3775E1,-1.8E-2,8.47E0,1.6130439E0,8.14E0,-7.5E-2,1.4E-1,6.4E-2,3.75E-2,-6.32877E-2,-8.6614415E-2,6.235E1,1.1689971E-2,6.1175E1,1E1,-1E-2,4.25E-2,1.25E-1,1.7E-1,6.1875E1,-3E-2,1E0,-1.12E-2,1.7677647E-3,6.875E1,-8.7542795E-2,6.365E1,9.058E0,3.3382256E-2,-9.063705E-2,-6.1775483E-2,9.94E0,1.26737915E-2,5.490836E-2,5.3725E1,8E-2,-1.8E-2,5.0824452E-2,1E0,9.456E0,7.846E0,-7.334565E-2,7.698744E-2,5.7925E1,8.36E0,8.558201E-2,1.1180306E-3,-2E-2,8.374E0,5.7925E1,-5.2E-2,1.3693036E-3,8.577499E-2,6.5975E1,8.404E0,-2E-2,-1.08E-2,6.02E1,-1.2E-2,6.0875E1,4.25E-2,8.424E0,-1.2E-2,6.3975E1,-1.6E-2,1.3693037E-3,8.854709E-2,-1.64E-1,6.5195E1,8.46E0,-5.491512E-2,5.1190507E-2,8.396E0,-9.0519436E-2,6.686335E-2,1.1378921E-2,8.14E0,2E-1,8.523338E-2,8.618E0,-5.064262E-2,7.398134E-2,2.26012E-2,7.567841E-2,-2.5E-1,-1.8E-2,8.664E0,-4E-2,8.558E0,-2.5E-1,6.4E1,-9.126186E-2,6.025E0,5.9112E0,5.4272808E-2,8.72E0,2.5E-2,8.578E0,8.636E0,2.2360664E-3,6.5E1,6.5675E1,3.25E-1,6.565E1,8.79E0,-5.25E-1,2.5432233E-2,-8.6736E-2,3.695E0,-1.24E-2,-6.877149E-2,6.5655E1,7.578302E-2,-5.6626655E-2,1.7711872E-2,-2E-2,9.596997E-3,-2.4075E0,1E1,-8E-3,6.7025E1,6.81E1,-1.08E-2,-6.470739E-2,6.095E0,-8.6867325E-2,7.0075E1,2.02E0,7.733671E-2,4.862E0,-5.7410773E-2,4.4599187E-2,8.862204E-3,4.9104962E-2,5.147595E-2,-4.2134277E-3,1.2216521E-2,7.7970736E-2,2.6394097E-2,-4.086086E-2,-3.186475E-2,4.421829E-2,1.9300956E-2,8.545923E-2,5.9786476E-2,2.5630057E-2,6.457313E-2,9.29844E-3,6.3972615E-2,-2.6663601E-2,-5.756696E-2,7.481173E-2,6.876238E-2,-5.4608554E-2,5.0834008E-2,-3.6852423E-2,4.582865E-2,8.787382E-3,1.5472421E-2,-2.19313E-2,-1.376293E-2,-6.2069613E-2,1.5115234E-2,-3.8785677E-2,7.697065E-2,3.460778E-2,-8.181763E-2,5.6285888E-2,2.1991603E-2,6.902417E-2,-1.6046668E-3,-7.9575844E-2,2.4769505E-2,7.63293E-2,5.599276E-2,7.801139E-2,4.252105E-2,-7.625841E-2,-7.3575206E-2,4.3703057E-2,-5.9226066E-2,5.603967E-2,-8.7757885E-2,-4.094597E-2,5.040436E-2,-5.4694574E-2,5.285911E-2,4.679615E-3,-8.815605E-2,-1.8611036E-2,6.3540906E-2,1.6621633E-2,-7.818649E-2,4.516375E-2,-2.5208557E-2,-7.44335E-2,6.3325427E-3,-7.481932E-2,-3.0413989E-2,7.522116E-3,-8.898159E-2,-2.9317308E-2,7.064796E-2,-5.852857E-2,-6.0524423E-2,-7.798439E-2,7.131418E-2,1.9981975E-2,4.2233884E-2,2.222628E-3,7.173623E-2,5.2431196E-2,5.3252824E-2,-7.40825E-2,5.07103E-2,-7.479354E-2,1.6143632E-3,6.307441E-2,-7.9154745E-2,7.2020054E-2,9.398398E-3,-5.8399577E-2,3.2415863E-2,-6.3053193E-3,-6.021997E-2,6.959816E-2,2.0485522E-2,5.6279983E-2,6.1220463E-2,-2.8487204E-2,-1.40128685E-2,7.24697E-2,-3.9118167E-2,-8.435733E-2,-8.943061E-3,-8.576616E-2,2.4137103E-3,-7.53103E-2,7.556264E-2,-5.8793228E-2,-8.1759244E-2,2.2218017E-2,-3.6737937E-2,-8.372706E-2,1.2261342E-2,7.79925E-2,-5.484378E-2,7.122153E-2,-8.5180275E-2,-4.2293947E-2,-8.935901E-2,-4.680172E-2,5.6870993E-2,-6.1350044E-2],"split_indices":[1,26,1,1,5,29,25,1,29,18,0,25,4,1,4,4,29,25,29,17,5,4,1,26,18,23,28,18,24,0,20,4,18,1,6,4,25,20,18,13,6,3,5,29,28,18,0,25,26,26,28,26,3,29,29,18,6,6,6,0,23,25,20,20,25,1,28,5,25,4,17,1,23,25,25,22,0,0,5,0,5,15,20,6,23,22,29,25,13,20,17,28,0,18,1,17,0,0,1,17,0,18,22,3,17,13,4,0,0,0,5,4,0,17,3,1,5,25,17,0,5,4,3,20,5,25,28,26,1,25,29,3,17,0,25,18,1,0,0,1,0,0,0,1,23,0,0,0,0,0,0,23,3,1,25,4,23,5,0,26,20,0,4,23,1,1,17,29,29,23,5,4,23,0,0,26,20,0,18,0,0,0,3,0,22,15,0,28,5,20,0,6,0,29,3,0,24,0,0,0,0,0,0,0,0,0,0,0,0,0,0,0,0,0,0,0,0,0,0,0,0,0,0,0,0,0,0,0,0,0,0,0,0,0,0,0,0,0,0,0,0,0,0,0,0,0,0,0,0,0,0,0,0,0,0,0,0,0,0,0,0,0,0,0,0,0,0,0,0,0,0,0,0,0,0,0,0,0,0,0,0,0,0,0,0,0,0,0,0,0,0,0,0,0,0,0,0,0,0,0,0,0,0,0,0,0,0,0,0,0,0,0,0,0,0,0,0,0,0,0,0],"split_type":[0,0,0,0,0,0,0,0,0,0,0,0,0,0,0,0,0,0,0,0,0,0,0,0,0,0,0,0,0,0,0,0,0,0,0,0,0,0,0,0,0,0,0,0,0,0,0,0,0,0,0,0,0,0,0,0,0,0,0,0,0,0,0,0,0,0,0,0,0,0,0,0,0,0,0,0,0,0,0,0,0,0,0,0,0,0,0,0,0,0,0,0,0,0,0,0,0,0,0,0,0,0,0,0,0,0,0,0,0,0,0,0,0,0,0,0,0,0,0,0,0,0,0,0,0,0,0,0,0,0,0,0,0,0,0,0,0,0,0,0,0,0,0,0,0,0,0,0,0,0,0,0,0,0,0,0,0,0,0,0,0,0,0,0,0,0,0,0,0,0,0,0,0,0,0,0,0,0,0,0,0,0,0,0,0,0,0,0,0,0,0,0,0,0,0,0,0,0,0,0,0,0,0,0,0,0,0,0,0,0,0,0,0,0,0,0,0,0,0,0,0,0,0,0,0,0,0,0,0,0,0,0,0,0,0,0,0,0,0,0,0,0,0,0,0,0,0,0,0,0,0,0,0,0,0,0,0,0,0,0,0,0,0,0,0,0,0,0,0,0,0,0,0,0,0,0,0,0,0,0,0,0,0,0,0,0,0,0,0,0,0,0,0,0,0,0,0,0,0,0,0,0,0,0,0,0,0,0,0,0,0,0,0,0,0,0,0,0,0,0,0],"sum_hessian":[2.286933E4,1.0502637E4,1.2366694E4,1.0184365E4,3.1827118E2,3.9694744E3,8.39722E3,8.619013E3,1.565353E3,1.8216626E2,1.361049E2,2.3274927E3,1.6419817E3,3.2832922E2,8.0688906E3,7.974976E3,6.4403644E2,7.418451E2,8.2350793E2,1.5076193E2,3.1404333E1,8.6751915E1,2.240741E3,9.5795013E2,6.8403156E2,1.8595866E2,1.4237054E2,1.1373794E3,6.931511E3,7.7711816E3,2.0379457E2,1.224122E2,5.216242E2,1.516563E2,5.901888E2,9.405741E1,7.2945056E2,1.17414345E2,3.3347584E1,1.0000895E1,2.1403439E1,2.620403E1,6.0547886E1,9.948526E2,1.2458883E3,9.2893066E2,2.9019495E1,2.387368E2,4.4529477E2,1.5152461E2,3.443406E1,8.144091E0,1.3422646E2,8.548091E2,2.8257028E2,6.9174185E3,1.4092793E1,2.9281235E1,1.7451334E2,4.5164616E1,7.724758E1,2.2146313E2,3.001611E2,7.551398E1,7.614232E1,2.9394873E2,2.9624008E2,5.4458164E1,3.9599247E1,2.1973515E2,5.097154E2,2.6505604E0,1.1476379E2,4.2342625E0,2.911332E1,7.7695875E0,2.2313077E0,1.784313E1,3.5603082E0,1.9105277E0,2.42935E1,2.1100843E1,3.9447044E1,6.782426E2,3.1661E2,5.7131757E2,6.745707E2,3.2400287E2,6.0492773E2,2.2820158E1,2.1591664E2,4.2619495E2,1.9099802E1,1.3851518E1,1.376731E2,1.0544586E1,2.3889471E1,1.7444555E0,6.3996353E0,1.3306152E2,1.1649326E0,7.528911E2,1.0191801E2,2.4897707E2,3.359321E1,2.8919262E1,6.888499E3,1.0364622E1,3.7281716E0,1.4636185E1,1.4645051E1,3.0574417E0,1.714559E2,2.0844439E1,2.4320177E1,4.5155617E1,3.209197E1,1.2044155E2,1.0102159E2,2.959432E2,4.2178903E0,1.6828056E1,5.868592E1,2.9153833E1,4.6988483E1,1.0165113E2,1.9229759E2,2.0287862E2,9.336147E1,4.557612E1,8.882045E0,3.989232E0,3.5610016E1,1.6637694E2,5.335822E1,4.9421732E2,1.54980755E1,1.4880893E0,1.162471E0,3.0985506E1,8.377828E1,2.3258853E0,1.9083769E0,2.9033172E0,2.6210003E1,3.4683044E0,4.301283E0,1.2392256E0,2.3210826E0,1.6597476E0,2.2633753E1,3.3228023E0,1.7778042E1,3.3127254E1,6.31979E0,2.3709918E2,4.411434E2,2.9120544E2,2.5404568E1,5.6039453E2,1.0923073E1,2.8105006E0,6.717602E2,5.0904945E1,2.7309793E2,5.3490704E2,7.002069E1,4.4042892E0,1.8415869E1,1.3446439E2,8.145226E1,3.267854E2,9.9409546E1,1.6619351E0,1.2189583E1,5.1360756E1,8.631233E1,2.7376134E0,7.8069725E0,4.9064565E0,1.4931788E0,1.9091557E0,1.3115237E2,2.1558752E0,7.507352E2,9.646057E1,5.457433E0,4.3082256E1,2.058948E2,3.1354776E1,2.238433E0,1.1066034E1,1.7853228E1,2.8801277E3,4.0083713E3,4.637562E0,5.7270603E0,1.2471123E0,1.3397939E1,1.9018471E0,1.1555946E0,1.6022459E1,4.8219805E0,1.9120545E0,2.2408123E1,2.1183167E1,2.397245E1,3.9046333E0,2.8187334E1,1.6512165E0,1.1879034E2,7.820419E1,2.2817402E1,2.3150434E0,1.902847E0,1.0519229E1,6.3088274E0,1.2448583E0,5.7441063E1,2.7905214E1,1.24862E0,1.2049019E1,3.4939465E1,6.3951683E1,3.7699444E1,5.0129047E1,1.4216855E2,2.7881262E1,1.7499736E2,3.7616337E1,5.5745132E1,3.7526524E1,8.049594E0,3.4896543E0,5.3923907E0,1.6606749E0,2.328557E0,3.1114754E1,4.495261E0,3.3095915E0,5.0048626E1,2.0340663E2,2.908107E2,1.2256361E1,3.2417142E0,2.9582909E1,1.4025978E0,1.7398148E0,1.1635025E0,2.1078054E1,5.1319475E0,2.8143167E0,1.4869661E0,1.1650215E0,2.1577806E0,1.17073555E1,6.0706863E0,1.7600195E1,1.5527059E1,3.4933503E0,2.8264396E0,1.2345261E2,1.13646576E2,4.5619745E0,4.3658142E2,1.4358476E2,1.4762067E2,5.526145E2,7.7800145E0,2.3178456E0,8.605227E0,2.1691858E2,4.548416E2,4.733345E1,3.5714955E0,1.1577607E2,1.5732187E2,3.6983823E2,1.6506883E2,5.591644E1,1.4104254E1,1.1612649E0,3.2430243E0,4.5670033E0,1.38488655E1,1.3072679E2,3.7375906E0,4.3636932E1,3.781533E1,1.5470381E2,1.720816E2,1.4991727E0,9.791037E1,1.530252E1,3.605824E1,1.720805E1,6.910429E1,2.9034765E0,4.903496E0,4.897653E0,1.26254715E2,2.8938477E0,7.478414E2,9.838206E0,8.662237E1,3.7188263E0,1.7386067E0,6.9626427E0,3.6119614E1,1.587541E2,4.7140697E1,3.8146489E0,2.7540127E1,1.4877357E0,9.578299E0,2.6905608E3,1.8956691E2,3.9873335E3,2.1037748E1,3.9818575E0,1.7452024E0],"tree_param":{"num_deleted":"0","num_feature":"30","num_nodes":"321","size_leaf_vector":"1"}},{"base_weights":[3.9084535E-3,1.4352425E0,-1.2432245E0,1.5301875E0,-1.5443054E0,-5.569667E-1,-1.5902159E0,1.7089273E0,6.2585795E-1,-1.3758531E0,-8.746162E-2,-1.1845855E0,4.8848325E-1,-7.8223926E-1,-1.6222757E0,1.73698E0,1.3226619E0,-1.2096862E-1,1.3246801E0,-1.480516E0,-9.331135E-1,3.9584124E-1,-1.2556782E0,9.2561084E-1,-5.4784056E-2,-3.6605132E-1,-1.5841087E0,-1.5140913E0,-1.7198205E0,8.730113E-2,1.638096E0,4.9110556E-1,1.518946E0,2.2054268E-1,-1.2218939E0,7.313976E-1,1.4333787E0,-1.5058639E0,3.3502564E-2,8.1998944E-1,-1.1920161E0,7.0225126E-1,-1.2747536E0,-9.021162E-1,-1.4776033E0,9.932446E-1,-8.3851695E-2,-8.372019E-1,4.0416998E-1,1.3413195E-1,-6.953265E-1,-1.6235801E0,5.24502E-2,-1.5681895E0,-8.806269E-1,-1.7273341E0,-1.5151399E0,6.5926197E-3,1.642069E0,9.3756706E-1,2.2837217E-1,1.3597066E0,1.6335137E0,5.005183E-1,-3.872791E-1,-1.4639027E0,-6.760661E-2,1.0261884E0,-4.4994187E-1,1.6106378E0,1.3388995E0,-1.6246287E-2,-1.5307662E0,-5.0455548E-2,5.477429E-2,5.3962648E-2,1.1009543E-2,-1.3059602E0,5.2857768E-2,-6.450649E-2,1.0801797E0,-8.510681E-2,-4.4744134E-1,-1.2351713E0,-2.9553407E-1,-1.5677518E0,-1.0988022E0,1.1123352E0,4.9576145E-1,7.287333E-1,-1.108838E0,4.9782702E-1,-8.4328584E-2,-1.3669657E0,4.362155E-1,2.320862E-1,-9.6921295E-1,4.2196345E-2,-1.6655666E0,-5.99967E-1,-1.5931022E0,2.1598797E-1,-1.7422057E0,-1.728487E0,-8.101418E-1,6.173892E-2,-1.5441443E0,1.5749294E0,8.604282E-2,1.2872307E0,6.339499E-1,-1.3959631E-1,8.1710047E-1,1.635584E0,9.8749226E-1,1.6459045E0,4.8847264E-1,1.1159558E0,2.7531365E-1,-5.081564E-1,1.4548719E0,-1.5101304E0,3.4779948E-1,7.326607E-1,-1.4001832E0,1.0816053E0,-6.596157E-2,4.540215E-1,-1.0756849E0,1.6327605E0,9.631369E-1,1.4402674E0,1.0460443E0,-4.9474012E-2,4.9902868E-2,-1.1250744E0,-1.6266772E0,3.9240114E-2,-1.4271879E0,9.996933E-1,-7.109029E-1,-6.692525E-2,1.1809886E0,7.3134506E-1,-7.375714E-2,-9.563373E-1,-1.6315403E0,-1.6621247E-1,-8.837589E-2,-1.6037899E0,-8.764746E-1,-1.2307485E0,3.1535175E-1,3.9165825E-1,1.2006674E0,9.393843E-1,-3.7732103E-1,1.0177214E0,-5.1885647E-1,-1.320338E0,-1.6570455E-1,6.8473727E-1,-5.5252236E-1,3.735623E-2,-8.314538E-2,7.075179E-1,-7.448171E-1,7.68752E-1,-7.8723866E-1,-6.472426E-1,-1.5049639E0,-1.0897357E0,-8.515286E-2,-1.3264258E0,-1.8330862E-1,1.0062733E0,-1.5982352E0,9.3616796E-1,-6.012379E-1,-8.8508956E-2,-2.3113218E-1,-8.648231E-2,-7.3688406E-1,6.2035836E-2,-7.218517E-2,-4.5769487E-2,-1.6001835E0,7.9998136E-2,5.3996146E-2,8.4551625E-2,3.996717E-2,1.0224562E-2,5.942707E-2,2.7179217E-2,-4.3614667E-2,-5.8247615E-2,4.8644207E-2,8.256802E-2,1.675238E-2,7.0316814E-2,2.0316754E-2,1.6776456E-2,8.263718E-2,4.8878726E-2,-5.9303526E-5,6.923803E-2,3.1189168E-2,-8.307188E-2,1.559103E-2,1.7541552E-2,-3.5849273E-2,7.86367E-2,2.1458311E-2,-6.331857E-2,-8.97476E-2,6.768837E-2,-5.6700744E-2,5.6985017E-2,-5.159083E-3,-8.692207E-2,5.7971116E-2,5.668049E-2,-6.671341E-2,7.2379105E-2,-4.259884E-2,-7.6747455E-2,6.38438E-2,8.1993945E-2,1.8482866E-2,-1.1128909E-2,6.632834E-2,7.639282E-2,5.6041002E-2,2.7202949E-2,6.7717634E-2,-6.274485E-2,5.7937916E-2,-8.314397E-2,-2.40287E-2,-7.7111535E-2,-2.2037314E-2,-5.506606E-2,6.654512E-2,6.534641E-2,-5.2030988E-2,6.3705765E-2,-6.300207E-2,5.1360745E-2,1.2996237E-2,-6.9337584E-2,-1.9503992E-2,-8.3140686E-2,-4.0903464E-2,2.4802973E-2,-1.8969055E-2,-8.638502E-2,-7.409441E-2,-7.850134E-2,-1.1947933E-2,3.526983E-2,-6.423068E-2,-7.512654E-2,3.350637E-2,2.925384E-2,-8.580359E-2,6.670586E-2,4.631552E-2,-1.1443599E-2,5.31659E-2,4.6857327E-2,-5.639133E-2,-6.442439E-2,6.0962092E-2,-7.7586345E-2,5.6822974E-2,1.5005025E-3,-7.0864595E-2,2.907826E-2,-8.3076194E-2,2.2363346E-2,6.095189E-2,5.986871E-3,-8.300485E-2,3.9563853E-2,-6.1543167E-2,2.7292093E-2,-8.18265E-2,5.7270903E-2,-6.497464E-2,5.875029E-2,-5.778114E-2,-7.501506E-2,-1.3681583E-2,3.7638795E-2,-8.108192E-2,3.227123E-2,-7.8060485E-2,1.0266974E-2,-7.888067E-2,-7.8298636E-2,9.354837E-4,-2.4846222E-3,8.195814E-2,-8.022739E-2,9.82128E-3,5.352973E-2,-6.9386296E-2,4.72111E-2,-4.8558902E-2,6.0807753E-2,-5.9907664E-2,6.2035836E-2,-7.0717394E-2,6.8849094E-2,-6.54734E-2,-2.339079E-2,-8.1386395E-2],"categories":[],"categories_nodes":[],"categories_segments":[],"categories_sizes":[],"default_left":[0,0,0,0,0,0,0,0,0,0,0,0,0,0,0,0,0,0,0,0,0,0,0,0,0,0,0,0,0,0,0,0,0,0,0,0,0,0,0,0,0,0,0,0,0,0,0,0,0,0,0,0,0,0,0,0,0,0,0,0,0,0,0,0,0,0,0,0,0,0,0,0,0,0,0,0,0,0,0,0,0,0,0,0,0,0,0,0,0,0,0,0,0,0,0,0,0,0,0,0,0,0,0,0,0,0,0,0,0,0,0,0,0,0,0,0,0,0,0,0,0,0,0,0,0,0,0,0,0,0,0,0,0,0,0,0,0,0,0,0,0,0,0,0,0,0,0,0,0,0,0,0,0,0,0,0,0,0,0,0,0,0,0,0,0,0,0,0,0,0,0,0,0,0,0,0,0,0,0,0,0,0,0,0,0,0,0,0,0,0,0,0,0,0,0,0,0,0,0,0,0,0,0,0,0,0,0,0,0,0,0,0,0,0,0,0,0,0,0,0,0,0,0,0,0,0,0,0,0,0,0,0,0,0,0,0,0,0,0,0,0,0,0,0,0,0,0,0,0,0,0,0,0,0,0,0,0,0,0,0,0,0,0,0,0,0,0,0,0,0,0,0,0,0,0,0,0,0,0,0,0,0,0,0,0,0,0,0,0,0,0,0,0,0,0,0,0,0,0,0,0,0,0,0,0,0,0,0,0,0,0,0,0,0,0,0,0],"id":3,"left_children":[1,3,5,7,9,11,13,15,17,19,-1,21,23,25,27,29,31,33,35,37,39,41,43,45,47,49,51,53,55,-1,57,59,61,63,65,67,69,71,73,75,77,79,81,83,85,87,-1,89,91,93,95,97,-1,99,101,103,105,-1,107,109,111,113,115,117,119,121,123,125,127,129,131,133,135,-1,-1,-1,-1,137,-1,139,141,-1,143,145,147,149,151,153,155,157,159,161,-1,163,165,167,169,-1,171,173,175,177,179,181,183,-1,185,187,-1,189,191,193,195,197,199,201,203,205,207,209,211,213,215,217,219,221,-1,223,225,227,229,231,233,-1,-1,235,237,-1,239,241,243,-1,245,247,-1,249,251,253,-1,255,257,259,261,263,265,267,269,271,273,275,277,279,281,-1,-1,283,285,287,289,291,293,295,-1,297,299,301,303,305,307,-1,309,-1,311,-1,-1,313,315,-1,-1,-1,-1,-1,-1,-1,-1,-1,-1,-1,-1,-1,-1,-1,-1,-1,-1,-1,-1,-1,-1,-1,-1,-1,-1,-1,-1,-1,-1,-1,-1,-1,-1,-1,-1,-1,-1,-1,-1,-1,-1,-1,-1,-1,-1,-1,-1,-1,-1,-1,-1,-1,-1,-1,-1,-1,-1,-1,-1,-1,-1,-1,-1,-1,-1,-1,-1,-1,-1,-1,-1,-1,-1,-1,-1,-1,-1,-1,-1,-1,-1,-1,-1,-1,-1,-1,-1,-1,-1,-1,-1,-1,-1,-1,-1,-1,-1,-1,-1,-1,-1,-1,-1,-1,-1,-1,-1,-1,-1,-1,-1,-1,-1,-1,-1,-1,-1,-1,-1,-1,-1,-1,-1,-1,-1,-1,-1,-1,-1],"loss_changes":[4.0527625E4,2.992875E3,2.8881875E3,1.6549688E3,8.879761E0,2.6749956E3,2.0745117E2,9.0390625E1,8.834E2,7.150818E0,0E0,2.8669604E2,3.633251E2,1.0269173E2,7.9171875E1,4.265625E0,9.4470825E1,3.081947E2,5.53385E1,5.700348E0,1.8184223E1,5.7413002E1,1.8994946E2,1.5088776E2,2.4559964E2,3.385895E1,1.266098E1,1.2481738E2,3.6376953E0,0E0,3.8773193E0,1.3026812E1,6.380493E0,1.06713066E2,5.411084E1,4.8322403E1,1.020166E1,5.3471375E0,4.8727717E0,6.130829E-1,9.95047E0,2.7292515E1,5.4145126E0,1.9007745E2,4.9368164E1,4.843744E1,0E0,1.083577E2,8.526608E1,3.7881634E1,3.166861E1,1.2207916E1,0E0,8.0850586E1,2.7629053E2,2.741211E0,1.4043823E1,0E0,8.983154E-1,3.5893898E0,1.57948675E1,1.9255157E1,3.0159302E0,5.914895E1,4.481981E1,1.3956848E1,3.801246E1,1.5762161E1,1.640643E1,2.0319824E0,1.29591675E1,4.3358626E0,3.71167E0,0E0,0E0,0E0,0E0,9.300297E0,0E0,2.269571E1,1.6937683E1,0E0,9.930216E0,6.5661255E1,6.356098E1,2.8643799E1,5.4678497E1,4.194989E1,6.2912384E1,1.4221041E1,4.2839813E1,8.154633E1,0E0,1.0012018E1,2.2702332E1,1.6485767E1,1.5544304E1,0E0,3.6465454E-1,2.5993662E1,4.5716797E1,7.670837E1,6.508301E0,3.2207031E0,1.0625172E1,0E0,1.2608185E1,2.9822998E0,0E0,2.2565937E0,5.516267E0,2.3198532E1,9.774807E0,1.8104248E0,2.110218E1,1.8286133E0,1.0320083E0,1.4296829E1,2.2817303E1,3.3708153E1,8.299732E-1,8.597412E0,8.69505E0,7.7133865E0,1.3580168E1,1.5118324E1,0E0,1.7082916E1,2.024817E1,1.5686646E0,4.928499E0,8.341797E0,1.922052E1,0E0,0E0,1.0490044E1,3.8872986E0,0E0,2.8223915E0,1.0158982E1,1.4977207E1,0E0,1.5471054E1,3.0091047E-1,0E0,8.706995E1,4.9935303E0,4.387593E1,0E0,1.4738281E1,2.7025654E1,2.8681885E1,1.7534584E1,3.1270405E1,2.0480164E1,1.5791138E1,5.5444443E1,1.605909E1,1.5108214E1,2.3107971E1,4.6442123E1,4.4044846E1,4.711592E1,0E0,0E0,1.01945915E1,1.6333122E1,1.6698027E1,8.952702E0,1.9212233E1,1.0491035E1,8.42296E0,0E0,1.2418484E1,1.5740183E1,4.8456917E0,3.7698242E1,2.3091915E1,3.5915115E1,0E0,7.2298245E0,0E0,1.0206877E1,0E0,0E0,1.3443345E1,3.7784119E0,0E0,0E0,0E0,0E0,0E0,0E0,0E0,0E0,0E0,0E0,0E0,0E0,0E0,0E0,0E0,0E0,0E0,0E0,0E0,0E0,0E0,0E0,0E0,0E0,0E0,0E0,0E0,0E0,0E0,0E0,0E0,0E0,0E0,0E0,0E0,0E0,0E0,0E0,0E0,0E0,0E0,0E0,0E0,0E0,0E0,0E0,0E0,0E0,0E0,0E0,0E0,0E0,0E0,0E0,0E0,0E0,0E0,0E0,0E0,0E0,0E0,0E0,0E0,0E0,0E0,0E0,0E0,0E0,0E0,0E0,0E0,0E0,0E0,0E0,0E0,0E0,0E0,0E0,0E0,0E0,0E0,0E0,0E0,0E0,0E0,0E0,0E0,0E0,0E0,0E0,0E0,0E0,0E0,0E0,0E0,0E0,0E0,0E0,0E0,0E0,0E0,0E0,0E0,0E0,0E0,0E0,0E0,0E0,0E0,0E0,0E0,0E0,0E0,0E0,0E0,0E0,0E0,0E0,0E0,0E0,0E0,0E0,0E0,0E0,0E0,0E0,0E0,0E0,0E0,0E0],"parents":[2147483647,0,0,1,1,2,2,3,3,4,4,5,5,6,6,7,7,8,8,9,9,11,11,12,12,13,13,14,14,15,15,16,16,17,17,18,18,19,19,20,20,21,21,22,22,23,23,24,24,25,25,26,26,27,27,28,28,30,30,31,31,32,32,33,33,34,34,35,35,36,36,37,37,38,38,39,39,40,40,41,41,42,42,43,43,44,44,45,45,47,47,48,48,49,49,50,50,51,51,53,53,54,54,55,55,56,56,58,58,59,59,60,60,61,61,62,62,63,63,64,64,65,65,66,66,67,67,68,68,69,69,70,70,71,71,72,72,77,77,79,79,80,80,82,82,83,83,84,84,85,85,86,86,87,87,88,88,89,89,90,90,91,91,93,93,94,94,95,95,96,96,98,98,99,99,100,100,101,101,102,102,103,103,104,104,106,106,107,107,109,109,110,110,111,111,112,112,113,113,114,114,115,115,116,116,117,117,118,118,119,119,120,120,121,121,122,122,123,123,124,124,125,125,127,127,128,128,129,129,130,130,131,131,132,132,135,135,136,136,138,138,139,139,140,140,142,142,143,143,145,145,146,146,147,147,149,149,150,150,151,151,152,152,153,153,154,154,155,155,156,156,157,157,158,158,159,159,160,160,161,161,162,162,165,165,166,166,167,167,168,168,169,169,170,170,171,171,173,173,174,174,175,175,176,176,177,177,178,178,180,180,182,182,185,185,186,186],"right_children":[2,4,6,8,10,12,14,16,18,20,-1,22,24,26,28,30,32,34,36,38,40,42,44,46,48,50,52,54,56,-1,58,60,62,64,66,68,70,72,74,76,78,80,82,84,86,88,-1,90,92,94,96,98,-1,100,102,104,106,-1,108,110,112,114,116,118,120,122,124,126,128,130,132,134,136,-1,-1,-1,-1,138,-1,140,142,-1,144,146,148,150,152,154,156,158,160,162,-1,164,166,168,170,-1,172,174,176,178,180,182,184,-1,186,188,-1,190,192,194,196,198,200,202,204,206,208,210,212,214,216,218,220,222,-1,224,226,228,230,232,234,-1,-1,236,238,-1,240,242,244,-1,246,248,-1,250,252,254,-1,256,258,260,262,264,266,268,270,272,274,276,278,280,282,-1,-1,284,286,288,290,292,294,296,-1,298,300,302,304,306,308,-1,310,-1,312,-1,-1,314,316,-1,-1,-1,-1,-1,-1,-1,-1,-1,-1,-1,-1,-1,-1,-1,-1,-1,-1,-1,-1,-1,-1,-1,-1,-1,-1,-1,-1,-1,-1,-1,-1,-1,-1,-1,-1,-1,-1,-1,-1,-1,-1,-1,-1,-1,-1,-1,-1,-1,-1,-1,-1,-1,-1,-1,-1,-1,-1,-1,-1,-1,-1,-1,-1,-1,-1,-1,-1,-1,-1,-1,-1,-1,-1,-1,-1,-1,-1,-1,-1,-1,-1,-1,-1,-1,-1,-1,-1,-1,-1,-1,-1,-1,-1,-1,-1,-1,-1,-1,-1,-1,-1,-1,-1,-1,-1,-1,-1,-1,-1,-1,-1,-1,-1,-1,-1,-1,-1,-1,-1,-1,-1,-1,-1,-1,-1,-1,-1,-1,-1],"split_conditions":[8.504E0,3.81E0,8.92E0,8.388E0,6.25E1,6.5325E1,-6.4E-2,8.35E0,6.365E1,3.0483434E0,-8.746162E-2,-2.4E-2,8.718E0,9.7496E0,9.304E0,8.326E0,6.0775E1,4.25E-2,6.425E1,8.496E0,5.5525E1,8.764E0,8.636E0,3.8175E0,6.6875E1,9.12E0,-1E-2,7.0075E1,-1E-2,8.730113E-2,3.75E-2,8.358E0,6.315E1,8.446E0,6.12E1,8.454E0,-1.6E-2,1.434E0,6.1475E1,1.4E-1,6.2475E1,6.3575E1,6.4575E1,6.315E1,1.7677647E-3,1E0,-8.3851695E-2,-5E-2,3.808E0,3.63E0,-1.28E-2,3.6375E0,5.24502E-2,-2.8E-2,3.066E0,1.8415008E0,3.3541005E-2,6.5926197E-3,6.25E1,-1.4E-2,0E0,-1.4E-2,-8.8E-3,-1.6E-2,8.5408E0,1.723006E-1,8.43E0,-8E-3,3.95E-2,8.726E0,8.468E0,8.14E0,-1E-1,-5.0455548E-2,5.477429E-2,5.3962648E-2,1.1009543E-2,8.1212E0,5.2857768E-2,8.542E0,-2.5E-1,-8.510681E-2,6.4475E1,4.25E-2,2.2360664E-3,-1E-2,6.515E1,6.5825E1,1.3693037E-3,8.85E0,-8E-3,1E0,-8.4328584E-2,8.928E0,-2.5E-2,-1.8E-2,4.9339387E-1,4.2196345E-2,1E1,3.6725E0,-1.6E-2,9.168E0,1E0,1.275E0,1.0385348E0,6.173892E-2,-2E-2,-1E-2,8.604282E-2,9.585144E-2,5.98E1,1E0,5.7925E1,1.25E-1,1.0839742E-1,4.1079186E-2,8.39E0,8.414E0,5.7925E1,6.0275E1,4.25E-2,-1.24E-2,-1.2E-2,1E0,8.562E0,1.25E-1,-6.596157E-2,1.3693036E-3,4.2E-2,6.6049224E-1,3.7265938E-2,4.25E-2,6.5375E1,-4.9474012E-2,4.9902868E-2,8.2016E0,5.825E0,3.9240114E-2,5.395E0,-1.25E-1,-2.5E-1,-6.692525E-2,-9.6E-3,-1.02E-1,-7.375714E-2,1E0,6.5508E0,8.215838E-2,-8.837589E-2,6.26E1,-1.12E-2,5.67E1,4E-2,-9.2E-3,8.636E0,-1.12E-2,6.565E1,-1.12E-2,3.73E0,-2E-2,3.697E0,6.895E1,3.6E0,3.735623E-2,-8.314538E-2,9.3676E0,3.665E0,-5E-2,7.15891E-2,3.689E0,6.6125E1,9.64E0,-8.515286E-2,-5.2E-2,9.1044E0,6.025E0,1.782E0,-1.4E-2,2.4710828E-1,-8.8508956E-2,9.814E0,-8.648231E-2,9.8216E0,6.2035836E-2,-7.218517E-2,2.5E-2,1.26737915E-2,7.9998136E-2,5.3996146E-2,8.4551625E-2,3.996717E-2,1.0224562E-2,5.942707E-2,2.7179217E-2,-4.3614667E-2,-5.8247615E-2,4.8644207E-2,8.256802E-2,1.675238E-2,7.0316814E-2,2.0316754E-2,1.6776456E-2,8.263718E-2,4.8878726E-2,-5.9303526E-5,6.923803E-2,3.1189168E-2,-8.307188E-2,1.559103E-2,1.7541552E-2,-3.5849273E-2,7.86367E-2,2.1458311E-2,-6.331857E-2,-8.97476E-2,6.768837E-2,-5.6700744E-2,5.6985017E-2,-5.159083E-3,-8.692207E-2,5.7971116E-2,5.668049E-2,-6.671341E-2,7.2379105E-2,-4.259884E-2,-7.6747455E-2,6.38438E-2,8.1993945E-2,1.8482866E-2,-1.1128909E-2,6.632834E-2,7.639282E-2,5.6041002E-2,2.7202949E-2,6.7717634E-2,-6.274485E-2,5.7937916E-2,-8.314397E-2,-2.40287E-2,-7.7111535E-2,-2.2037314E-2,-5.506606E-2,6.654512E-2,6.534641E-2,-5.2030988E-2,6.3705765E-2,-6.300207E-2,5.1360745E-2,1.2996237E-2,-6.9337584E-2,-1.9503992E-2,-8.3140686E-2,-4.0903464E-2,2.4802973E-2,-1.8969055E-2,-8.638502E-2,-7.409441E-2,-7.850134E-2,-1.1947933E-2,3.526983E-2,-6.423068E-2,-7.512654E-2,3.350637E-2,2.925384E-2,-8.580359E-2,6.670586E-2,4.631552E-2,-1.1443599E-2,5.31659E-2,4.6857327E-2,-5.639133E-2,-6.442439E-2,6.0962092E-2,-7.7586345E-2,5.6822974E-2,1.5005025E-3,-7.0864595E-2,2.907826E-2,-8.3076194E-2,2.2363346E-2,6.095189E-2,5.986871E-3,-8.300485E-2,3.9563853E-2,-6.1543167E-2,2.7292093E-2,-8.18265E-2,5.7270903E-2,-6.497464E-2,5.875029E-2,-5.778114E-2,-7.501506E-2,-1.3681583E-2,3.7638795E-2,-8.108192E-2,3.227123E-2,-7.8060485E-2,1.0266974E-2,-7.888067E-2,-7.8298636E-2,9.354837E-4,-2.4846222E-3,8.195814E-2,-8.022739E-2,9.82128E-3,5.352973E-2,-6.9386296E-2,4.72111E-2,-4.8558902E-2,6.0807753E-2,-5.9907664E-2,6.2035836E-2,-7.0717394E-2,6.8849094E-2,-6.54734E-2,-2.339079E-2,-8.1386395E-2],"split_indices":[1,26,1,1,5,29,25,2,29,17,0,25,1,21,2,2,29,16,29,1,5,1,1,26,29,1,3,29,25,0,16,2,29,2,29,2,25,20,5,25,5,5,29,29,17,13,0,25,16,26,20,27,0,25,0,19,19,0,5,25,23,25,20,25,21,19,2,25,16,21,1,1,23,0,0,0,0,21,0,2,23,0,5,16,17,25,29,29,17,2,25,13,0,1,23,3,19,0,15,26,2,1,7,23,17,0,3,25,0,19,5,13,5,23,19,19,21,2,5,5,26,20,0,13,21,23,0,17,16,19,17,16,5,0,0,21,27,0,27,23,23,0,20,25,0,13,20,19,0,29,20,5,16,20,1,20,5,20,27,3,16,29,6,0,0,21,26,23,19,16,29,1,0,25,21,27,3,3,19,0,1,0,21,0,0,23,17,0,0,0,0,0,0,0,0,0,0,0,0,0,0,0,0,0,0,0,0,0,0,0,0,0,0,0,0,0,0,0,0,0,0,0,0,0,0,0,0,0,0,0,0,0,0,0,0,0,0,0,0,0,0,0,0,0,0,0,0,0,0,0,0,0,0,0,0,0,0,0,0,0,0,0,0,0,0,0,0,0,0,0,0,0,0,0,0,0,0,0,0,0,0,0,0,0,0,0,0,0,0,0,0,0,0,0,0,0,0,0,0,0,0,0,0,0,0,0,0,0,0,0,0,0,0,0,0,0,0],"split_type":[0,0,0,0,0,0,0,0,0,0,0,0,0,0,0,0,0,0,0,0,0,0,0,0,0,0,0,0,0,0,0,0,0,0,0,0,0,0,0,0,0,0,0,0,0,0,0,0,0,0,0,0,0,0,0,0,0,0,0,0,0,0,0,0,0,0,0,0,0,0,0,0,0,0,0,0,0,0,0,0,0,0,0,0,0,0,0,0,0,0,0,0,0,0,0,0,0,0,0,0,0,0,0,0,0,0,0,0,0,0,0,0,0,0,0,0,0,0,0,0,0,0,0,0,0,0,0,0,0,0,0,0,0,0,0,0,0,0,0,0,0,0,0,0,0,0,0,0,0,0,0,0,0,0,0,0,0,0,0,0,0,0,0,0,0,0,0,0,0,0,0,0,0,0,0,0,0,0,0,0,0,0,0,0,0,0,0,0,0,0,0,0,0,0,0,0,0,0,0,0,0,0,0,0,0,0,0,0,0,0,0,0,0,0,0,0,0,0,0,0,0,0,0,0,0,0,0,0,0,0,0,0,0,0,0,0,0,0,0,0,0,0,0,0,0,0,0,0,0,0,0,0,0,0,0,0,0,0,0,0,0,0,0,0,0,0,0,0,0,0,0,0,0,0,0,0,0,0,0,0,0,0,0,0,0,0,0,0,0,0,0,0,0,0,0,0,0,0,0,0,0,0,0,0,0,0,0,0,0,0,0,0,0,0,0,0,0],"sum_hessian":[2.270174E4,1.05701875E4,1.2131553E4,1.0244236E4,3.259515E2,4.07496E3,8.0565923E3,8.552878E3,1.6913579E3,1.8313019E2,1.4282132E2,2.5462358E3,1.528724E3,3.0844803E2,7.7481445E3,7.970518E3,5.823598E2,8.1799695E2,8.7336096E2,1.4622002E2,3.691017E1,1.0941071E2,2.4368252E3,8.467236E2,6.820005E2,2.0401582E2,1.04432205E2,3.6815476E3,4.066597E3,7.287456E3,6.830623E2,1.1188054E2,4.7047928E2,6.2493835E2,1.9305861E2,1.3643277E2,7.3692816E2,1.4381758E2,2.4024346E0,4.470689E0,3.243948E1,9.294328E1,1.6467434E1,9.4166656E2,1.4951587E3,8.258802E2,2.0843416E1,2.5184122E2,4.3015924E2,8.122467E1,1.2279115E2,1.0326758E2,1.1646248E0,3.3905193E3,2.910283E2,3.9154253E3,1.5117163E2,1.8869398E0,6.8117535E2,4.049651E1,7.138403E1,2.0224464E2,2.6823462E2,4.2797876E2,1.9695956E2,1.5937558E2,3.368304E1,1.0929155E2,2.7141212E1,2.5063922E2,4.8628897E2,2.391874E0,1.414257E2,1.237395E0,1.1650395E0,2.5633285E0,1.9073603E0,3.127446E1,1.1650205E0,3.095986E1,6.198342E1,1.0160944E1,6.3064895E0,6.0722314E2,3.3444342E2,1.2052018E3,2.8995694E2,6.6536505E2,1.6051515E2,3.6979275E1,2.1486195E2,4.124452E2,1.7714043E1,1.3016857E1,6.820781E1,2.8030182E1,9.476097E1,1.4082135E0,1.0185937E2,8.568018E1,3.304839E3,1.283782E2,1.6265009E2,3.9096265E3,5.798767E0,1.1439159E0,1.5002771E2,3.7910562E2,3.0206973E2,1.7315407E1,2.3181105E1,4.4397484E1,2.6986546E1,1.14204506E2,8.804014E1,2.6493033E2,3.3042967E0,1.13594185E2,3.1438458E2,1.8551096E2,1.1448615E1,1.5557242E2,3.8031542E0,2.1326056E1,1.2356985E1,1.0729525E2,1.9963014E0,1.1214666E1,1.5926546E1,2.4088737E2,9.751854E0,3.5833725E2,1.27951706E2,1.233139E0,1.1587352E0,2.9476025E1,1.11949684E2,1.4140015E0,2.9860458E1,1.1492512E1,1.946735E1,1.9888057E0,5.9994614E1,3.0716438E0,3.2348456E0,3.5846567E2,2.4875748E2,3.0845676E2,2.598665E1,1.1442301E3,6.0971706E1,2.6533023E2,2.4626703E1,7.324159E1,5.921234E2,1.0638422E2,5.413093E1,3.0174086E1,6.8051877E0,1.751779E2,3.968405E1,3.5043347E2,6.2011738E1,1.411206E0,1.1605652E1,5.5792336E1,1.2415478E1,1.8523527E1,9.506656E0,6.056894E1,3.419203E1,8.064265E0,9.3795105E1,3.0433971E1,5.524621E1,6.128788E0,3.2987102E3,6.816356E1,6.0214657E1,1.5952544E2,3.12465E0,3.9043179E3,5.308679E0,1.1424148E0,4.6563525E0,5.474245E0,1.4455347E2,3.587317E2,2.0373913E1,8.12483E0,9.1905775E0,1.3835806E1,9.345299E0,2.3108646E1,2.1288837E1,1.494452E0,2.5492094E1,1.12569214E2,1.6352911E0,5.0339924E1,3.770022E1,1.6354694E0,2.6329486E2,1.1545846E0,2.149712E0,7.229564E1,4.1298546E1,4.992906E0,3.0939166E2,3.6146725E1,1.4936423E2,9.790308E0,1.6583064E0,8.676365E1,6.880877E1,2.3167686E0,1.4863856E0,1.4097366E1,7.2286887E0,1.1197963E1,1.1590222E0,1.0555385E2,1.7414016E0,6.307624E0,4.907043E0,1.3615991E1,2.3105562E0,2.392408E2,1.6465682E0,2.3787096E0,7.3731446E0,2.782588E2,8.007846E1,4.9736214E1,7.821549E1,2.8316906E1,1.1591196E0,1.080847E2,3.864984E0,2.6237154E1,3.6233058E0,1.2483693E0,1.0244142E1,2.317951E0,1.7149399E1,5.825037E1,1.7442449E0,1.1628466E0,1.9087973E0,2.0283842E2,1.5562723E2,2.3854276E2,1.0214725E1,7.4785675E1,2.3367108E2,5.6090704E2,5.83323E2,2.850187E1,3.246984E1,6.854496E0,2.5847574E2,3.4930477E0,2.1133656E1,6.774711E1,5.494486E0,3.957596E2,1.9636382E2,1.0122082E1,9.626213E1,1.958327E1,3.454766E1,1.991335E0,2.818275E1,4.2289944E0,2.5761933E0,1.1781313E1,1.6339659E2,2.6871168E1,1.2812882E1,2.4387852E2,1.0655494E2,3.9144352E1,2.2867386E1,5.404863E1,1.7437029E0,5.231424E0,7.1840534E0,1.6047216E1,2.47631E0,1.156546E0,8.350109E0,1.7529192E1,4.303975E1,1.4122373E0,3.2779793E1,1.6441963E0,6.4200697E0,4.3133407E0,2.612063E1,6.1821795E0,4.906403E1,2.6420517E0,3.4867363E0,3.2872534E3,1.1456696E1,6.494604E1,3.217521E0,1.1330028E1,4.888463E1,1.148349E0,1.9763011E0,1.1424148E0,4.1662645E0,2.532901E0,2.941344E0,3.8597698E0,1.406937E2],"tree_param":{"num_deleted":"0","num_feature":"30","num_nodes":"317","size_leaf_vector":"1"}},{"base_weights":[3.9176564E-3,1.4405708E0,-1.1368643E0,1.5297464E0,-1.4354904E0,-3.7071693E-1,-1.49169E0,1.6476218E0,7.3719853E-1,-1.5067326E0,6.764459E-2,-1.1336594E0,4.960062E-1,-1.1381589E0,-1.5677232E0,1.6746567E0,1.3406343E0,4.1890144E-2,1.3534888E0,-1.3229704E0,-8.181881E-2,-7.184318E-1,-1.372012E0,5.76127E-1,-8.493238E-2,-1.4628834E0,-2.7872616E-1,-1.4616387E0,-1.6450052E0,1.677223E0,1.02371365E-1,7.115664E-1,1.4720784E0,3.856351E-1,-3.9930886E-1,9.388313E-1,1.4551075E0,-1.5628339E0,-1.0048352E0,-2.7506965E-1,-1.1482604E0,-1.5454391E0,-1.1433654E0,1.261842E-1,9.6188474E-1,-1.5000862E0,2.3329431E-1,6.7516226E-1,-5.9598666E-1,-8.440857E-2,-1.34553E0,-1.6640149E0,-1.5740715E0,1.6874411E0,1.6329876E0,7.171847E-2,-1.0122799E0,8.0625707E-1,-9.6532065E-1,1.5463433E0,1.2577404E0,-3.622671E-1,7.193027E-1,-6.279023E-2,-7.387063E-1,1.3146718E0,2.1378434E-1,1.4787256E0,7.0098764E-1,-1.6231834E0,1.2220669E-2,-2.2832985E-1,-1.352486E0,-5.743456E-1,2.0941263E-1,-1.2100244E0,3.38278E-1,-1.5833358E0,-9.987882E-1,-4.8242226E-1,-1.2911223E0,4.952569E-1,-8.4586054E-1,1.2935876E0,6.4510036E-1,3.5195956E-1,-1.5110984E0,8.7303005E-2,-3.2337007E-1,8.535187E-1,-7.775378E-2,-7.4685806E-1,4.1642007E-1,-1.1234225E0,-1.5623598E0,-1.6677006E0,-1.2127457E0,-1.0839041E0,-8.218118E-2,8.438007E-2,2.76639E-2,1.1565449E0,8.179462E-2,-7.440689E-2,4.8680868E-2,1.0962791E0,5.1945317E-1,3.7116524E-2,-7.712144E-2,1.4231577E0,1.6294326E0,1.3474729E0,-9.245721E-2,6.1503977E-1,-7.177303E-1,7.662182E-1,-1.0380672E0,1.0768563E0,-2.5046685E-1,-8.204717E-1,6.21752E-1,1.3641044E0,1.7005004E-1,1.3392441E0,-4.2442925E-2,1.5989054E0,1.4117278E0,-7.763078E-2,1.2997857E0,6.443377E-3,-8.408236E-2,-6.6105926E-1,8.26576E-1,6.5209703E-3,-1.4408902E0,4.0239617E-1,-8.4870017E-1,-7.8990735E-2,2.8357106E-1,-7.3929566E-1,-1.3703549E0,1.3727839E0,-1.0536631E0,-1.5892252E0,1.14336126E-1,4.10896E-1,-1.1903654E0,-7.631371E-1,-1.0738908E-1,-1.3064413E0,8.002612E-1,7.922081E-1,1.1875315E-1,-1.2371988E0,1.3537978E-1,-8.749889E-2,1.3256226E0,7.8922033E-1,-1.7098932E-2,-6.0201854E-2,1.173243E0,-1.5215871E0,1.4283052E-1,-1.0408964E0,1.3247006E0,-7.020496E-2,9.448747E-1,-8.904146E-1,8.373026E-3,6.950887E-1,-7.7931345E-2,-1.28475E0,-1.3006459E-1,-5.382235E-1,-1.5823815E0,-1.6690695E0,-8.9230376E-1,7.1969576E-2,-8.2559116E-2,-2.843636E-1,-1.349132E0,-6.595836E-2,7.722121E-2,3.1357836E-2,6.622638E-2,5.288889E-2,1.5066902E-2,7.4049495E-2,3.453019E-2,2.8124169E-2,8.165931E-2,1.5026385E-2,7.000545E-2,4.9777336E-2,-4.9269166E-2,-4.640757E-2,5.5503946E-2,5.3006437E-2,2.3852171E-2,-8.105041E-2,1.9813754E-2,-6.853031E-2,7.4714236E-2,-2.7503053E-2,1.17822485E-2,-4.9661915E-3,-5.24744E-2,5.374965E-2,-5.0009977E-2,7.0002206E-2,-7.0743576E-5,6.1460167E-2,-6.5101184E-2,2.2929374E-2,7.410501E-2,-4.3040454E-2,4.1822817E-2,1.733662E-2,8.043286E-2,3.6518753E-2,7.188336E-2,6.993244E-2,1.5416999E-2,-7.4898325E-2,2.0494996E-2,1.0667772E-3,7.26139E-2,-7.674301E-2,-2.9650915E-2,2.9672695E-2,-4.7921125E-2,-5.009955E-2,4.2565104E-2,1.7844412E-2,-7.97782E-2,-7.781174E-2,-1.8734945E-2,1.3603501E-2,-7.050348E-2,2.0244459E-2,7.5887986E-2,4.63497E-2,-7.7476256E-2,-7.350203E-2,-8.429282E-2,-4.8417445E-2,5.895799E-2,6.5013245E-2,-6.06849E-2,1.290544E-2,-6.767308E-2,9.886007E-3,-5.3629696E-2,2.4611024E-2,-3.7463795E-2,-7.037023E-2,-4.9119186E-2,5.3589072E-2,1.614974E-2,4.2417224E-2,-5.1596295E-2,-4.990396E-3,5.3329345E-2,-9.968946E-4,-7.046195E-2,-3.2355513E-2,2.9501636E-2,-5.6475937E-2,4.4604298E-2,3.9612006E-2,6.974133E-2,5.0065335E-2,1.4042991E-2,3.823848E-2,-5.5433493E-2,7.824042E-2,1.6291356E-2,-8.154528E-2,-6.694276E-2,4.579113E-2,-6.0895354E-2,-6.428754E-2,4.0516155E-3,2.1275157E-2,7.808914E-2,-1.0317935E-2,5.6988236E-2,-3.3717465E-2,-7.860449E-2,2.4185546E-2,-6.628634E-2,5.554222E-2,-2.3849552E-2,-6.6924445E-2,7.4874386E-3,1.0121023E-2,-4.8544493E-2,4.5308053E-2,-7.845304E-2,-6.044755E-2,-8.0032475E-2,-8.352035E-2,-4.4251237E-2,3.3529025E-2,-7.11082E-2,1.9506952E-2,-6.1501082E-2,-7.4112676E-2,-1.6809244E-2],"categories":[],"categories_nodes":[],"categories_segments":[],"categories_sizes":[],"default_left":[0,0,0,0,0,0,0,0,0,0,0,0,0,0,0,0,0,0,0,0,0,0,0,0,0,0,0,0,0,0,0,0,0,0,0,0,0,0,0,0,0,0,0,0,0,0,0,0,0,0,0,0,0,0,0,0,0,0,0,0,0,0,0,0,0,0,0,0,0,0,0,0,0,0,0,0,0,0,0,0,0,0,0,0,0,0,0,0,0,0,0,0,0,0,0,0,0,0,0,0,0,0,0,0,0,0,0,0,0,0,0,0,0,0,0,0,0,0,0,0,0,0,0,0,0,0,0,0,0,0,0,0,0,0,0,0,0,0,0,0,0,0,0,0,0,0,0,0,0,0,0,0,0,0,0,0,0,0,0,0,0,0,0,0,0,0,0,0,0,0,0,0,0,0,0,0,0,0,0,0,0,0,0,0,0,0,0,0,0,0,0,0,0,0,0,0,0,0,0,0,0,0,0,0,0,0,0,0,0,0,0,0,0,0,0,0,0,0,0,0,0,0,0,0,0,0,0,0,0,0,0,0,0,0,0,0,0,0,0,0,0,0,0,0,0,0,0,0,0,0,0,0,0,0,0,0,0,0,0,0,0,0,0,0,0,0,0,0,0,0,0,0,0,0,0,0,0,0,0,0,0,0,0,0,0,0,0,0,0,0,0,0,0,0,0,0,0,0,0,0,0,0,0,0,0,0,0,0,0],"id":4,"left_children":[1,3,5,7,9,11,13,15,17,19,-1,21,23,25,27,29,31,33,35,37,-1,39,41,43,-1,45,47,49,51,53,55,57,59,61,63,65,67,69,71,73,75,77,79,81,83,85,87,89,91,-1,93,95,97,99,101,-1,103,105,107,109,111,113,115,117,119,121,123,125,127,129,-1,131,133,135,137,139,141,143,145,147,149,151,153,155,157,159,161,-1,163,165,-1,167,169,171,173,175,177,179,-1,-1,-1,181,-1,-1,-1,183,185,-1,-1,187,189,191,-1,193,195,197,199,201,203,205,207,209,211,213,215,217,219,-1,221,-1,-1,223,225,-1,227,229,231,-1,233,235,237,239,241,243,245,247,249,251,253,255,257,259,261,263,265,267,269,271,273,-1,275,277,279,281,283,-1,285,287,289,291,-1,293,295,297,299,301,303,-1,-1,305,307,-1,-1,-1,-1,-1,-1,-1,-1,-1,-1,-1,-1,-1,-1,-1,-1,-1,-1,-1,-1,-1,-1,-1,-1,-1,-1,-1,-1,-1,-1,-1,-1,-1,-1,-1,-1,-1,-1,-1,-1,-1,-1,-1,-1,-1,-1,-1,-1,-1,-1,-1,-1,-1,-1,-1,-1,-1,-1,-1,-1,-1,-1,-1,-1,-1,-1,-1,-1,-1,-1,-1,-1,-1,-1,-1,-1,-1,-1,-1,-1,-1,-1,-1,-1,-1,-1,-1,-1,-1,-1,-1,-1,-1,-1,-1,-1,-1,-1,-1,-1,-1,-1,-1,-1,-1,-1,-1,-1,-1,-1,-1,-1,-1,-1,-1,-1,-1,-1,-1,-1,-1,-1,-1,-1,-1,-1,-1,-1],"loss_changes":[3.685629E4,2.5549883E3,3.4070479E3,9.007344E2,6.1604004E1,2.6251372E3,2.2849414E2,6.75E1,5.363611E2,4.8120117E0,0E0,2.0796191E2,3.2783292E2,4.237882E2,5.5376953E1,3.097461E1,5.560913E1,8.951682E1,2.6595337E1,8.072281E0,0E0,1.4680994E2,5.1375732E1,3.112818E2,0E0,6.994849E1,1.26918106E2,7.609326E1,2.8691406E0,7.285156E-1,2.1709272E1,1.988998E1,7.0618896E0,8.303714E1,2.948117E1,3.6079353E1,8.423828E0,8.057968E0,1.5110863E1,5.5413376E1,3.637152E1,1.4147827E1,5.6205383E1,2.9793912E2,1.0065076E2,2.2546387E1,2.1227535E1,4.3017826E1,4.8309616E1,0E0,9.33457E1,3.2861328E0,2.817163E1,1.9726562E-1,1.5209961E-1,0E0,9.022371E0,8.952362E0,7.93353E0,1.9376221E0,4.4577774E1,3.6221973E1,1.9734169E1,2.8269003E1,1.4817757E1,4.7293396E0,1.3537576E1,1.8823242E0,2.6350334E1,7.1927643E0,0E0,9.159323E0,5.3336945E0,6.358284E1,1.986655E1,2.7385315E1,2.5071072E1,7.263916E0,1.4514282E1,1.127916E1,1.6263123E1,6.717998E1,8.794704E1,2.0945496E1,4.7350464E1,1.0602374E1,1.883496E1,0E0,2.3587624E1,2.1475632E1,0E0,2.9697372E1,2.38681E1,1.567301E2,1.958496E1,1.8691406E0,3.6706528E1,2.3390976E1,0E0,0E0,0E0,1.3910669E1,0E0,0E0,0E0,5.1673813E0,6.6624355E0,0E0,0E0,6.4087524E0,4.8339844E-2,7.696533E0,0E0,1.8037483E1,3.0255878E1,1.8558594E1,5.991586E0,2.115115E1,1.6617058E1,2.0005028E1,6.8540597E0,4.1200714E0,9.041432E0,4.148245E-1,2.8805508E1,1.597229E0,4.9349976E0,0E0,1.0184441E0,0E0,0E0,1.31039E1,2.9581447E0,0E0,2.0478668E0,1.4200508E1,4.8950333E1,0E0,2.0046787E1,2.8538189E1,1.8615417E1,7.670498E-1,8.8618355E0,5.6520996E0,5.0404816E0,1.1629632E1,1.1210762E1,1.851511E1,1.8597101E1,1.4057495E1,1.8176413E-1,3.5304657E1,5.531367E1,3.42155E1,2.3889215E1,1.2859458E1,1.5881531E1,4.3640198E1,7.7347466E1,0E0,1.2200212E0,1.9121338E1,9.190644E0,3.852354E0,6.436577E-1,0E0,2.14357E1,3.2832794E1,2.900672E1,1.8545626E1,0E0,6.5119385E1,3.8748077E1,3.213307E1,4.7302246E0,1.8310547E0,7.34969E0,0E0,0E0,1.9101032E1,1.0817734E1,0E0,0E0,0E0,0E0,0E0,0E0,0E0,0E0,0E0,0E0,0E0,0E0,0E0,0E0,0E0,0E0,0E0,0E0,0E0,0E0,0E0,0E0,0E0,0E0,0E0,0E0,0E0,0E0,0E0,0E0,0E0,0E0,0E0,0E0,0E0,0E0,0E0,0E0,0E0,0E0,0E0,0E0,0E0,0E0,0E0,0E0,0E0,0E0,0E0,0E0,0E0,0E0,0E0,0E0,0E0,0E0,0E0,0E0,0E0,0E0,0E0,0E0,0E0,0E0,0E0,0E0,0E0,0E0,0E0,0E0,0E0,0E0,0E0,0E0,0E0,0E0,0E0,0E0,0E0,0E0,0E0,0E0,0E0,0E0,0E0,0E0,0E0,0E0,0E0,0E0,0E0,0E0,0E0,0E0,0E0,0E0,0E0,0E0,0E0,0E0,0E0,0E0,0E0,0E0,0E0,0E0,0E0,0E0,0E0,0E0,0E0,0E0,0E0,0E0,0E0,0E0,0E0,0E0,0E0,0E0,0E0,0E0,0E0,0E0,0E0,0E0,0E0,0E0],"parents":[2147483647,0,0,1,1,2,2,3,3,4,4,5,5,6,6,7,7,8,8,9,9,11,11,12,12,13,13,14,14,15,15,16,16,17,17,18,18,19,19,21,21,22,22,23,23,25,25,26,26,27,27,28,28,29,29,30,30,31,31,32,32,33,33,34,34,35,35,36,36,37,37,38,38,39,39,40,40,41,41,42,42,43,43,44,44,45,45,46,46,47,47,48,48,50,50,51,51,52,52,53,53,54,54,56,56,57,57,58,58,59,59,60,60,61,61,62,62,63,63,64,64,65,65,66,66,67,67,68,68,69,69,71,71,72,72,73,73,74,74,75,75,76,76,77,77,78,78,79,79,80,80,81,81,82,82,83,83,84,84,85,85,86,86,88,88,89,89,91,91,92,92,93,93,94,94,95,95,96,96,97,97,101,101,105,105,106,106,109,109,110,110,111,111,113,113,114,114,115,115,116,116,117,117,118,118,119,119,120,120,121,121,122,122,123,123,124,124,125,125,126,126,128,128,131,131,132,132,134,134,135,135,136,136,138,138,139,139,140,140,141,141,142,142,143,143,144,144,145,145,146,146,147,147,148,148,149,149,150,150,151,151,152,152,153,153,154,154,155,155,156,156,157,157,158,158,160,160,161,161,162,162,163,163,164,164,166,166,167,167,168,168,169,169,171,171,172,172,173,173,174,174,175,175,176,176,179,179,180,180],"right_children":[2,4,6,8,10,12,14,16,18,20,-1,22,24,26,28,30,32,34,36,38,-1,40,42,44,-1,46,48,50,52,54,56,58,60,62,64,66,68,70,72,74,76,78,80,82,84,86,88,90,92,-1,94,96,98,100,102,-1,104,106,108,110,112,114,116,118,120,122,124,126,128,130,-1,132,134,136,138,140,142,144,146,148,150,152,154,156,158,160,162,-1,164,166,-1,168,170,172,174,176,178,180,-1,-1,-1,182,-1,-1,-1,184,186,-1,-1,188,190,192,-1,194,196,198,200,202,204,206,208,210,212,214,216,218,220,-1,222,-1,-1,224,226,-1,228,230,232,-1,234,236,238,240,242,244,246,248,250,252,254,256,258,260,262,264,266,268,270,272,274,-1,276,278,280,282,284,-1,286,288,290,292,-1,294,296,298,300,302,304,-1,-1,306,308,-1,-1,-1,-1,-1,-1,-1,-1,-1,-1,-1,-1,-1,-1,-1,-1,-1,-1,-1,-1,-1,-1,-1,-1,-1,-1,-1,-1,-1,-1,-1,-1,-1,-1,-1,-1,-1,-1,-1,-1,-1,-1,-1,-1,-1,-1,-1,-1,-1,-1,-1,-1,-1,-1,-1,-1,-1,-1,-1,-1,-1,-1,-1,-1,-1,-1,-1,-1,-1,-1,-1,-1,-1,-1,-1,-1,-1,-1,-1,-1,-1,-1,-1,-1,-1,-1,-1,-1,-1,-1,-1,-1,-1,-1,-1,-1,-1,-1,-1,-1,-1,-1,-1,-1,-1,-1,-1,-1,-1,-1,-1,-1,-1,-1,-1,-1,-1,-1,-1,-1,-1,-1,-1,-1,-1,-1,-1,-1],"split_conditions":[8.47E0,1.434E0,8.852E0,8.374E0,4.495E0,6.4425E1,9.044E0,8.344E0,6.3325E1,-1.8E-2,6.764459E-2,8.58E0,3.855E0,6.6725E1,9.324E0,2.4920332E0,6.02E1,8.414E0,6.415E1,5.8475E0,-8.181881E-2,4.25E-2,6.2475E1,6.641E1,-8.493238E-2,9.0804E0,-1.8E-2,4.75E-2,7.124E1,8.294E0,-8E-3,4.5E-2,1E0,6.0475E1,4.25E-2,8.414E0,1.6130439E0,5.825E0,8.23E0,1E0,6.4E1,5.8475E0,9.420722E-2,8.694E0,8.636E0,-1.6E-2,-6.5E-2,3.805E0,6.947E1,-8.440857E-2,9.0372E0,-4E-3,9.542E0,8.6048E0,3.75E-2,7.171847E-2,8.142E0,8.368E0,7.623975E-2,6.3005E1,9.117291E-3,4.25E-2,2.2360662E-3,6.02E1,8.4972E0,2.2360662E-3,6.471089E-2,8.398E0,1.0606601E-1,-2.6E-2,1.2220669E-2,1.485345E-1,7.6E-2,7.623975E-2,5.9375E1,-2E-2,1.1180305E-3,6.2775E1,5.5535E1,8.023403E-2,8.9044E0,8.592E0,1.7677647E-3,-1.025E-1,1E0,8.5336E0,1.3369274E0,8.7303005E-2,1.25E-2,6.665E1,-7.775378E-2,9.072E0,3.75E0,6.98E1,5.6725E1,1.8415008E0,1.0008E1,-1.8E-2,-8.218118E-2,8.438007E-2,2.76639E-2,6.3075E1,8.179462E-2,-7.440689E-2,4.8680868E-2,-1.2E-2,4.25E-2,3.7116524E-2,-7.712144E-2,6.265E1,-1.25E-1,6.077E1,-9.245721E-2,6.0025E1,1.485345E-1,8.39E0,-1.12E-2,5.9375E1,1E0,4.25E-2,8.454E0,6.425E1,-1.8E-2,-1.08E-2,1E0,6.4075E1,8.44E0,-7.763078E-2,6.783E1,6.443377E-3,-8.408236E-2,8.2E0,3.0017753E0,6.5209703E-3,8.2016E0,1.3693037E-3,8.6048E0,-7.8990735E-2,-1.04E-2,5.9075E1,-1.4E-2,6.3975E1,8.476E0,8.682E0,8.686E0,1E0,8.2732E0,8.6E0,-1.16E-2,6.3925E1,8.8E0,3.645E0,8.7408E0,7.373941E-2,4.25E-2,-1.6E-2,1.1319231E-1,-9.6E-3,4.25E-2,-6.0201854E-2,5.9975E0,6.4475E1,6.334E1,9.022E0,3.7E0,-7.020496E-2,1.4426538E-1,8.97E0,6.7775E1,8.998E0,-7.7931345E-2,9.346E0,-1.6E-2,1E0,4.0365517E-2,1.4E-1,1.0385348E0,7.1969576E-2,-8.2559116E-2,3.42965E-1,3.7725E0,-6.595836E-2,7.722121E-2,3.1357836E-2,6.622638E-2,5.288889E-2,1.5066902E-2,7.4049495E-2,3.453019E-2,2.8124169E-2,8.165931E-2,1.5026385E-2,7.000545E-2,4.9777336E-2,-4.9269166E-2,-4.640757E-2,5.5503946E-2,5.3006437E-2,2.3852171E-2,-8.105041E-2,1.9813754E-2,-6.853031E-2,7.4714236E-2,-2.7503053E-2,1.17822485E-2,-4.9661915E-3,-5.24744E-2,5.374965E-2,-5.0009977E-2,7.0002206E-2,-7.0743576E-5,6.1460167E-2,-6.5101184E-2,2.2929374E-2,7.410501E-2,-4.3040454E-2,4.1822817E-2,1.733662E-2,8.043286E-2,3.6518753E-2,7.188336E-2,6.993244E-2,1.5416999E-2,-7.4898325E-2,2.0494996E-2,1.0667772E-3,7.26139E-2,-7.674301E-2,-2.9650915E-2,2.9672695E-2,-4.7921125E-2,-5.009955E-2,4.2565104E-2,1.7844412E-2,-7.97782E-2,-7.781174E-2,-1.8734945E-2,1.3603501E-2,-7.050348E-2,2.0244459E-2,7.5887986E-2,4.63497E-2,-7.7476256E-2,-7.350203E-2,-8.429282E-2,-4.8417445E-2,5.895799E-2,6.5013245E-2,-6.06849E-2,1.290544E-2,-6.767308E-2,9.886007E-3,-5.3629696E-2,2.4611024E-2,-3.7463795E-2,-7.037023E-2,-4.9119186E-2,5.3589072E-2,1.614974E-2,4.2417224E-2,-5.1596295E-2,-4.990396E-3,5.3329345E-2,-9.968946E-4,-7.046195E-2,-3.2355513E-2,2.9501636E-2,-5.6475937E-2,4.4604298E-2,3.9612006E-2,6.974133E-2,5.0065335E-2,1.4042991E-2,3.823848E-2,-5.5433493E-2,7.824042E-2,1.6291356E-2,-8.154528E-2,-6.694276E-2,4.579113E-2,-6.0895354E-2,-6.428754E-2,4.0516155E-3,2.1275157E-2,7.808914E-2,-1.0317935E-2,5.6988236E-2,-3.3717465E-2,-7.860449E-2,2.4185546E-2,-6.628634E-2,5.554222E-2,-2.3849552E-2,-6.6924445E-2,7.4874386E-3,1.0121023E-2,-4.8544493E-2,4.5308053E-2,-7.845304E-2,-6.044755E-2,-8.0032475E-2,-8.352035E-2,-4.4251237E-2,3.3529025E-2,-7.11082E-2,1.9506952E-2,-6.1501082E-2,-7.4112676E-2,-1.6809244E-2],"split_indices":[4,20,4,2,22,29,4,2,5,3,0,4,27,29,2,17,5,2,28,6,0,27,5,18,0,21,3,6,18,2,0,6,13,29,27,2,17,27,4,13,29,27,19,2,2,2,22,6,18,0,20,3,4,21,6,0,4,4,19,18,17,6,17,28,21,17,19,2,19,2,0,19,24,19,5,3,17,29,18,19,21,4,17,22,13,21,19,0,22,5,0,21,27,5,18,19,4,3,0,0,0,5,0,0,0,0,27,0,0,28,22,18,0,5,19,2,20,5,13,6,2,18,3,20,13,5,21,0,18,0,0,4,17,0,21,17,21,0,20,29,0,5,4,4,2,13,21,4,20,29,2,6,21,19,27,3,19,20,6,0,6,28,18,2,27,0,19,2,5,4,0,4,3,13,17,22,17,0,0,19,27,0,0,0,0,0,0,0,0,0,0,0,0,0,0,0,0,0,0,0,0,0,0,0,0,0,0,0,0,0,0,0,0,0,0,0,0,0,0,0,0,0,0,0,0,0,0,0,0,0,0,0,0,0,0,0,0,0,0,0,0,0,0,0,0,0,0,0,0,0,0,0,0,0,0,0,0,0,0,0,0,0,0,0,0,0,0,0,0,0,0,0,0,0,0,0,0,0,0,0,0,0,0,0,0,0,0,0,0,0,0,0,0,0,0,0,0,0,0,0,0,0,0,0,0,0,0,0,0],"split_type":[0,0,0,0,0,0,0,0,0,0,0,0,0,0,0,0,0,0,0,0,0,0,0,0,0,0,0,0,0,0,0,0,0,0,0,0,0,0,0,0,0,0,0,0,0,0,0,0,0,0,0,0,0,0,0,0,0,0,0,0,0,0,0,0,0,0,0,0,0,0,0,0,0,0,0,0,0,0,0,0,0,0,0,0,0,0,0,0,0,0,0,0,0,0,0,0,0,0,0,0,0,0,0,0,0,0,0,0,0,0,0,0,0,0,0,0,0,0,0,0,0,0,0,0,0,0,0,0,0,0,0,0,0,0,0,0,0,0,0,0,0,0,0,0,0,0,0,0,0,0,0,0,0,0,0,0,0,0,0,0,0,0,0,0,0,0,0,0,0,0,0,0,0,0,0,0,0,0,0,0,0,0,0,0,0,0,0,0,0,0,0,0,0,0,0,0,0,0,0,0,0,0,0,0,0,0,0,0,0,0,0,0,0,0,0,0,0,0,0,0,0,0,0,0,0,0,0,0,0,0,0,0,0,0,0,0,0,0,0,0,0,0,0,0,0,0,0,0,0,0,0,0,0,0,0,0,0,0,0,0,0,0,0,0,0,0,0,0,0,0,0,0,0,0,0,0,0,0,0,0,0,0,0,0,0,0,0,0,0,0,0,0,0,0,0,0,0,0,0,0,0,0,0,0,0,0,0,0,0],"sum_hessian":[2.248632E4,9.952409E3,1.2533911E4,9.653558E3,2.988514E2,3.9680525E3,8.565858E3,8.402741E3,1.2508158E3,2.9185428E2,6.9971385E0,2.1102097E3,1.857843E3,1.5189872E3,7.0468716E3,7.71855E3,6.841919E2,5.882316E2,6.6258417E2,1.2536358E2,1.6649069E2,7.710311E2,1.3391785E3,1.7931185E3,6.472437E1,1.1019347E3,4.170525E2,2.978386E3,4.0684856E3,7.705906E3,1.2643908E1,1.1936164E2,5.6483026E2,3.307023E2,2.5752933E2,1.3243173E2,5.301524E2,6.924365E1,5.611993E1,3.8034775E2,3.9068335E2,7.582733E2,5.809052E2,8.283126E2,9.6480597E2,1.0783973E3,2.353728E1,1.03808754E2,3.1324374E2,1.0046788E3,1.9737073E3,3.1908914E3,8.7759424E2,6.2297153E3,1.4761903E3,5.6296706E0,7.014237E0,1.1347321E2,5.888426E0,4.1486963E2,1.499606E2,1.0199624E2,2.2870607E2,1.2990813E2,1.2762122E2,8.668426E1,4.574748E1,5.131212E2,1.7031202E1,6.710467E1,2.138984E0,1.786773E1,3.82522E1,2.3499834E2,1.4534941E2,3.7527704E2,1.5406312E1,7.0734045E2,5.093284E1,1.06915955E2,4.7398926E2,6.0071826E2,2.2759438E2,4.6979904E2,4.9500693E2,6.191207E0,1.0722062E3,5.7566423E0,1.7780638E1,9.6693306E1,7.1154532E0,2.7284586E2,4.039788E1,9.78041E2,9.9566626E2,3.1623677E3,2.8523571E1,1.1111256E2,7.664817E2,6.228348E3,1.367468E0,1.1364464E1,1.4648258E3,5.86058E0,1.1536573E0,5.501674E1,5.8456474E1,1.4150447E0,4.4733815E0,1.7441512E2,2.4045453E2,1.4630144E2,3.6591604E0,2.7008656E1,7.498758E1,2.2330853E2,5.3975425E0,1.7698431E1,1.12209694E2,1.2076028E2,6.860942E0,8.2911804E1,3.7724545E0,7.6998153E0,3.8047665E1,1.7548079E2,3.376404E2,3.2409303E0,1.3790273E1,2.128001E0,6.497666E1,1.2935038E1,4.9326906E0,2.1253858E0,3.6126816E1,5.1430756E1,1.8356758E2,4.976548E0,1.4037286E2,9.677063E1,2.785064E2,8.845788E0,6.560524E0,7.0495874E2,2.3816893E0,5.956715E0,4.497612E1,6.0555157E1,4.6360794E1,4.7091522E2,3.0740368E0,3.3522208E2,2.6549615E2,1.6251807E2,6.507631E1,1.061094E1,4.591881E2,4.063728E2,8.8634125E1,1.9778832E0,4.2133236E0,1.0655289E3,6.677273E0,1.2644132E1,5.1365056E0,3.2017245E0,9.349158E1,2.2911586E2,4.3730007E1,3.5970676E1,4.4272056E0,8.411411E2,1.368999E2,1.9626453E1,9.760398E2,3.155644E3,6.723627E0,3.7225525E0,2.480102E1,2.8193682E1,8.291888E1,1.2141234E0,1.0150341E1,1.92335E1,3.5783237E1,1.5745575E1,4.27109E1,1.607063E2,1.3708814E1,1.3718253E0,2.390827E2,7.324494E0,1.3897694E2,2.2126049E1,4.882608E0,6.768747E1,7.3001127E0,1.0942524E2,1.1388329E2,3.7452636E0,1.6522787E0,2.2460363E0,1.5452395E1,6.93421E1,4.2867588E1,2.9452185E1,9.130809E1,5.62602E0,1.2349222E0,8.076093E1,2.1508656E0,2.2898781E0,1.4825764E0,1.6623228E0,6.0374923E0,1.9712976E1,1.8334686E1,1.6385498E0,1.7384224E2,1.34519825E1,3.2418845E2,1.2166375E1,1.6238978E0,7.0371222E0,5.8979154E0,2.6090722E0,2.3236187E0,3.179294E1,4.3338747E0,4.5593384E1,5.837371E0,1.6876085E2,1.4806731E1,1.3588135E2,4.491529E0,2.88528E1,6.791782E1,6.437308E0,2.7206912E2,1.6464536E0,7.1993346E0,1.139495E0,5.4210286E0,3.229033E2,3.8205548E2,1.225864E0,1.1558253E0,3.9784093E0,1.978306E0,4.4927707E0,4.048335E1,1.483959E1,4.571557E1,2.4090324E1,2.2270472E1,3.565009E2,1.1441432E2,1.1653782E0,1.9086586E0,3.2573282E2,9.489257E0,2.1647408E2,4.902208E1,2.026315E1,1.4225491E2,2.376013E1,4.131618E1,5.0674505E0,5.543489E0,5.4165012E1,4.050231E2,2.8605988E2,1.2031292E2,5.1817654E1,3.6816475E1,2.3027349E0,1.9105885E0,6.617287E2,4.038002E2,4.466794E0,2.2104788E0,1.0259121E1,2.3850112E0,1.654838E0,3.4816675E0,1.3527072E1,7.996451E1,1.7548347E2,5.3632385E1,3.271214E1,1.1017865E1,2.659075E1,9.379925E0,8.108329E2,3.0308268E1,9.865021E1,3.82497E1,8.224052E0,1.14024E1,4.865377E1,9.2738605E2,3.1491416E3,6.5024757E0,1.6351076E0,5.0885196E0,1.6799013E1,1.1394669E1,7.2877945E1,1.0040935E1],"tree_param":{"num_deleted":"0","num_feature":"30","num_nodes":"309","size_leaf_vector":"1"}},{"base_weights":[6.8777706E-4,1.3895507E0,-1.1032362E0,1.4721814E0,-1.3301713E0,-3.7772956E-1,-1.444688E0,1.6056705E0,7.7629155E-1,6.5475665E-2,-1.3993117E0,-1.1373243E0,4.7668532E-1,-6.0704845E-1,-1.4796643E0,1.6083306E0,1.1450234E-1,8.0017164E-2,1.2760577E0,-1.4809902E0,-8.2764363E-1,-6.782569E-1,-1.3344673E0,5.482839E-1,-8.1847176E-2,2.4889708E-1,-1.0853474E0,-1.3273456E0,-1.5801564E0,1.6225963E0,1.3491014E0,7.271322E-2,-7.322325E-2,3.980314E-1,-7.905219E-1,8.9099395E-1,1.417421E0,-1.2392734E0,-7.818025E-2,-1.0096968E0,8.4636277E-1,-2.516372E-1,-1.1223873E0,-1.1713232E0,-1.5577705E0,9.5257497E-1,1.5742034E-1,-7.391265E-1,5.3431505E-1,-1.3903946E-1,-1.1890683E0,-1.4802321E0,-1.1100138E0,-1.4674218E0,-1.6028147E0,8.151269E-2,7.8448705E-2,8.4231293E-1,1.471366E0,1.0369933E0,1.7868808E-1,-1.0610278E0,5.0739676E-1,1.1985015E0,1.7092341E-1,1.5557023E0,1.308014E0,-1.4585242E0,-4.0727094E-1,4.576517E-2,-1.2843871E0,1.195007E-2,6.714657E-2,1.3317053E0,-3.801352E-1,-1.1846102E0,6.5613186E-1,-6.4717877E-1,-1.2620633E0,-1.5826412E0,-7.1902835E-1,5.8774495E-1,1.2004517E0,-4.1430452E-1,5.470101E-1,4.316413E-2,-8.041362E-2,7.8717303E-1,-8.654037E-1,-7.362159E-2,3.3917388E-1,-1.5727026E0,-8.346779E-1,-1.4888728E0,7.71334E-1,-8.3713067E-1,-1.5693662E0,-1.5290288E0,-4.965166E-1,-1.6101295E0,-1.4077525E0,1.0450922E0,2.3679653E-1,1.4855852E0,5.7759386E-1,1.3803674E0,5.139175E-1,5.226321E-1,-1.3375124E-1,-1.1547587E0,8.9224976E-1,1.0915456E0,-8.328246E-1,1.3608811E0,7.697899E-1,1.3684053E0,-6.940592E-2,1.5762584E0,1.0441539E0,-9.463923E-2,1.3245635E0,5.333068E-2,-1.5358664E0,-7.133276E-2,3.4690017E-1,7.61577E-1,-5.8272894E-2,-1.4015218E0,-4.009958E-1,1.3104989E-2,1.4102166E0,-6.6186465E-2,-8.567265E-1,-6.8732643E-1,-1.3821392E0,7.967235E-2,-6.479401E-2,-2.0950079E-1,-1.2389128E0,-1.3161901E0,-6.5280706E-1,-1.6244394E0,-1.0350661E0,1.5312478E-1,-7.8007214E-2,9.514329E-1,2.5369298E-1,-6.946051E-2,1.2116597E0,-6.047954E-1,9.175362E-1,1.1676456E0,3.7191603E-1,-6.468536E-1,9.5074856E-1,1.165571E0,4.8561627E-1,7.260562E-1,-8.313235E-2,-7.1374846E-1,7.740701E-1,-1.617992E0,5.3316545E-2,2.9363725E-2,-1.1742876E0,1.9219403E-1,-1.4950019E0,8.695452E-2,-5.9208687E-2,-1.0126308E0,5.27203E-1,-9.436858E-1,-1.6030486E0,-4.5204794E-1,-1.554722E0,5.196921E-1,-1.1507658E0,-1.6112529E0,-7.492329E-1,-7.578174E-1,-1.5626472E0,2.987096E-2,6.421155E-2,3.8144734E-2,-3.7695017E-2,7.451804E-2,1.5593871E-2,6.336452E-2,-2.0755405E-2,3.797488E-3,7.07014E-2,6.1215013E-3,5.3872287E-2,2.9355064E-2,-5.668629E-2,2.5007738E-2,-1.6935369E-2,-1.39206E-2,-6.843497E-2,7.015318E-2,-4.5458633E-3,6.718613E-2,-5.7286687E-2,-8.1044815E-2,1.11952815E-2,6.93315E-2,-2.798783E-3,-1.8580655E-2,5.0463617E-2,7.8074865E-2,9.931363E-3,-8.429479E-2,5.814174E-3,7.91067E-2,1.9039918E-2,-2.83114E-2,7.536899E-2,6.0395177E-2,-7.51331E-2,7.764839E-2,6.1176714E-2,-3.6720797E-2,-8.112963E-2,5.9011634E-2,-6.088804E-2,2.700837E-3,6.265235E-2,-2.3760932E-2,-7.898318E-2,-6.229162E-2,5.6255944E-2,1.3499394E-2,7.5127326E-2,-3.9442986E-2,1.5812749E-2,-5.9726268E-2,-1.9584155E-2,-1.721215E-2,-7.675487E-2,5.138851E-2,-7.194015E-2,-5.3028133E-2,1.7480925E-2,-4.0819414E-2,-7.034641E-2,1.2080923E-5,-6.674783E-2,-5.0875504E-2,3.4871213E-2,-8.203698E-2,-9.873551E-3,-5.6245178E-2,6.53594E-2,5.175778E-2,-3.3465516E-2,6.385953E-2,3.300045E-2,-4.897173E-2,1.6243441E-2,5.4053515E-2,6.9436036E-2,3.4015562E-2,-4.0820986E-2,5.8397878E-2,-4.6995427E-2,-5.8596123E-2,6.0111683E-2,1.3063918E-2,5.8511443E-2,1.6068503E-2,-7.1659766E-2,7.848573E-2,-3.7096967E-3,6.6609845E-2,-1.7849023E-3,3.9409652E-2,-2.9025499E-2,7.260734E-2,-5.2396573E-2,5.083844E-2,-6.9724485E-2,-5.195726E-2,5.5037875E-2,-4.125925E-2,-8.310102E-2,2.754882E-2,-7.639506E-2,-4.558098E-2,-8.0762014E-2,-6.765671E-2,7.9692505E-2,-7.503611E-2,1.30669745E-2,-2.9616674E-2,-6.409456E-2,4.1044198E-2,-3.6029216E-2,8.057695E-3,-7.911678E-2,-8.104261E-2,-2.812404E-2,4.5776155E-2,-7.8937955E-2,-8.0709E-2,-7.0616424E-2,4.1913103E-2,-6.428557E-2,-8.529919E-2,-9.824316E-3,-8.123556E-2,-7.7427715E-2,6.271228E-2,-6.809708E-2,-8.0227904E-2,3.8060147E-2,-3.9706282E-2,-7.974907E-2],"categories":[],"categories_nodes":[],"categories_segments":[],"categories_sizes":[],"default_left":[0,0,0,0,0,0,0,0,0,0,0,0,0,0,0,0,0,0,0,0,0,0,0,0,0,0,0,0,0,0,0,0,0,0,0,0,0,0,0,0,0,0,0,0,0,0,0,0,0,0,0,0,0,0,0,0,0,0,0,0,0,0,0,0,0,0,0,0,0,0,0,0,0,0,0,0,0,0,0,0,0,0,0,0,0,0,0,0,0,0,0,0,0,0,0,0,0,0,0,0,0,0,0,0,0,0,0,0,0,0,0,0,0,0,0,0,0,0,0,0,0,0,0,0,0,0,0,0,0,0,0,0,0,0,0,0,0,0,0,0,0,0,0,0,0,0,0,0,0,0,0,0,0,0,0,0,0,0,0,0,0,0,0,0,0,0,0,0,0,0,0,0,0,0,0,0,0,0,0,0,0,0,0,0,0,0,0,0,0,0,0,0,0,0,0,0,0,0,0,0,0,0,0,0,0,0,0,0,0,0,0,0,0,0,0,0,0,0,0,0,0,0,0,0,0,0,0,0,0,0,0,0,0,0,0,0,0,0,0,0,0,0,0,0,0,0,0,0,0,0,0,0,0,0,0,0,0,0,0,0,0,0,0,0,0,0,0,0,0,0,0,0,0,0,0,0,0,0,0,0,0,0,0,0,0,0,0,0,0,0,0,0,0,0,0,0,0,0,0,0,0,0,0,0,0,0,0,0,0,0,0,0,0,0,0,0,0],"id":5,"left_children":[1,3,5,7,9,11,13,15,17,-1,19,21,23,25,27,29,31,33,35,37,39,41,43,45,-1,47,49,51,53,55,57,-1,-1,59,61,63,65,67,-1,69,71,73,75,77,79,81,83,85,87,89,91,93,95,97,99,-1,-1,101,103,105,107,109,111,113,115,117,119,121,123,125,127,-1,-1,129,131,133,135,137,139,141,143,145,147,149,151,153,-1,155,157,-1,159,161,163,165,167,169,171,173,175,177,179,181,183,185,187,189,191,193,195,197,199,201,203,205,207,209,211,213,215,217,219,-1,221,-1,223,225,-1,227,229,-1,231,233,235,237,239,-1,-1,241,243,245,247,249,251,253,-1,255,257,-1,259,261,263,265,267,269,271,273,275,277,